svm_type c_svc
kernel_type rbf
gamma 6.103515625e-05
nr_class 2
total_sv 19
rho 0.21980973137213625
label 1 2
probA -0.75276138642279966
probB 0.10799409756733444
nr_sv 9 10
SV
1 1:0 2:0 3:0 4:0 5:0 6:0 7:0 8:0 9:0 10:0 11:0 12:0 13:0 14:0 15:0 16:0 17:0 18:0 19:0 20:0 21:0.0003 22:0.0005 23:0.0006 24:0.0003 25:0.0001 26:0.0001 27:0 28:0 29:0 30:0 31:0 32:0 33:0 34:0 35:0.0004 36:0.0007 37:0.0003 38:0.0002 39:0.0001 40:0.0003 41:0.0004 42:0.0032 43:0.0084 44:0.0051 45:0.0015 46:0.0031 47:0.0014 48:0.0001 49:0.0001 50:0.0007 51:0.0007 52:0.0007 53:0.0006 54:0.0003 55:0.0001 56:0 57:0 58:0 59:0 60:0 61:0 62:0 63:0.0001 64:0.0004 65:0.0002 66:0.0003 67:0.0002 68:0.0002 69:0.0002 70:0.0011 71:0.0021 72:0.0032 73:0.0033 74:0.0031 75:0.0008 76:0.0012 77:0.0008 78:0.0005 79:0.0003 80:0.0004 81:0.0004 82:0.0003 83:0.0004 84:0.0003 85:0.0001 86:0 87:0 88:0 89:0 90:0 91:0 92:0 93:0 94:0 95:0.0005 96:0.001 97:0.0009 98:0.0006 99:0.0005 100:0.0003 101:0.0008 102:0.0039 103:0.0022 104:0.0007 105:0.0007 106:0.001 107:0.0013 108:0.001 109:0.0009 110:0.0012 111:0.0007 112:0.0006 113:0.0006 114:0.0008 115:0.0011 116:0.0015 117:0.0007 118:0.0003 119:0.0006 120:0.0004 121:0.0001 122:0 123:0 124:0 125:0 126:0 127:0 128:0 129:0 130:0 131:0 132:0 133:0 134:0 135:0 136:0 137:0 138:0 139:0 140:0 141:0 142:0 143:0 144:0 145:0 146:0 147:0.0001 148:0.0002 149:0.0008 150:0.0035 151:0.0035 152:0.0007 153:0.0002 154:0.0002 155:0.0001 156:0.0001 157:0 158:0 159:0 160:0 161:0 162:0.0001 163:0.0023 164:0.0023 165:0.0007 166:0.0005 167:0.0006 168:0.0022 169:0.0031 170:0.0175 171:0.0674 172:0.0846 173:0.0417 174:0.0242 175:0.0097 176:0.0029 177:0.0004 178:0.0022 179:0.0042 180:0.0051 181:0.0009 182:0.0003 183:0.0002 184:0.0003 185:0.0004 186:0.0002 187:0.0002 188:0.0001 189:0 190:0 191:0.0002 192:0.0025 193:0.0027 194:0.0008 195:0.0003 196:0.0008 197:0.0006 198:0.0037 199:0.0048 200:0.0863 201:0.3601 202:0.2041 203:0.0112 204:0.0052 205:0.0031 206:0.0024 207:0.0009 208:0.0005 209:0.0005 210:0.001 211:0.0023 212:0.0041 213:0.0008 214:0 215:0 216:0.0001 217:0.0001 218:0.0001 219:0 220:0 221:0 222:0.0001 223:0.0023 224:0.0068 225:0.0025 226:0.0018 227:0.0022 228:0.0026 229:0.0038 230:0.0078 231:0.0021 232:0.0006 233:0.0004 234:0.0022 235:0.0059 236:0.003 237:0.0031 238:0.0035 239:0.0022 240:0.0027 241:0.0015 242:0.0031 243:0.0028 244:0.0018 245:0.0012 246:0.0017 247:0.0007 248:0.0012 249:0.0008 250:0.0005 251:0.0004 252:0.0001 253:0 254:0.0001 255:0 256:0.0001 257:0 258:0 259:0 260:0 261:0 262:0 263:0 264:0 265:0 266:0 267:0 268:0 269:0 270:0 271:0 272:0 273:0 274:0 275:0.0011 276:0.0023 277:0.0006 278:0.002 279:0.0038 280:0.0019 281:0.0006 282:0.0001 283:0.0002 284:0.0002 285:0.0003 286:0.0001 287:0 288:0.0001 289:0.0002 290:0.0002 291:0.0061 292:0.0091 293:0.0042 294:0.001 295:0.0007 296:0.0008 297:0.0013 298:0.0135 299:0.0341 300:0.0449 301:0.0492 302:0.0745 303:0.0747 304:0.0146 305:0.0011 306:0.0058 307:0.0079 308:0.0032 309:0.0012 310:0.0004 311:0.0012 312:0.002 313:0.0024 314:0.0005 315:0.0002 316:0.0002 317:0.0003 318:0.0003 319:0.0007 320:0.0047 321:0.0033 322:0.0011 323:0.0007 324:0.0022 325:0.0019 326:0.0047 327:0.011 328:0.141 329:1.0014 330:0.7856 331:0.0373 332:0.0026 333:0.0023 334:0.0036 335:0.0027 336:0.0008 337:0.0007 338:0.0006 339:0.0025 340:0.0048 341:0.0013 342:0.0001 343:0.0001 344:0.0001 345:0.0001 346:0 347:0.0001 348:0.0001 349:0.0001 350:0.0002 351:0.003 352:0.0122 353:0.0054 354:0.0026 355:0.0059 356:0.0096 357:0.0033 358:0.0049 359:0.0028 360:0.0013 361:0.0012 362:0.0007 363:0.0042 364:0.0042 365:0.0019 366:0.0041 367:0.0038 368:0.0023 369:0.0023 370:0.0034 371:0.0031 372:0.0014 373:0.0013 374:0.0028 375:0.0011 376:0.0029 377:0.0028 378:0.0046 379:0.0011 380:0.0001 381:0 382:0.0002 383:0.0002 384:0.0003 385:0 386:0 387:0 388:0 389:0 390:0 391:0 392:0 393:0 394:0 395:0 396:0 397:0 398:0 399:0 400:0 401:0 402:0 403:0.0015 404:0.006 405:0.0032 406:0.002 407:0.0014 408:0.0014 409:0.0008 410:0.0004 411:0.0003 412:0.0002 413:0.0003 414:0.0001 415:0.0002 416:0.0005 417:0.0003 418:0.0003 419:0.0067 420:0.0179 421:0.0075 422:0.0009 423:0.002 424:0.0018 425:0.0017 426:0.0238 427:0.0697 428:0.0421 429:0.0122 430:0.0176 431:0.037 432:0.0086 433:0.0047 434:0.0057 435:0.0056 436:0.0013 437:0.0036 438:0.0016 439:0.0012 440:0.0043 441:0.0075 442:0.0026 443:0.0002 444:0.0002 445:0.0003 446:0.0003 447:0.0018 448:0.006 449:0.0042 450:0.0031 451:0.0005 452:0.0014 453:0.0008 454:0.0005 455:0.0078 456:0.0411 457:0.4461 458:0.5055 459:0.0259 460:0.0042 461:0.0033 462:0.0016 463:0.0014 464:0.0004 465:0.0006 466:0.0012 467:0.0022 468:0.0029 469:0.0014 470:0.0001 471:0.0001 472:0.0001 473:0.0001 474:0 475:0.0002 476:0.0002 477:0.0002 478:0.0006 479:0.0078 480:0.0134 481:0.004 482:0.0056 483:0.0056 484:0.0037 485:0.0017 486:0.0064 487:0.0136 488:0.0029 489:0.0027 490:0.0022 491:0.0012 492:0.0014 493:0.0012 494:0.001 495:0.0013 496:0.0048 497:0.011 498:0.0256 499:0.02 500:0.003 501:0.0014 502:0.0024 503:0.0038 504:0.0091 505:0.005 506:0.004 507:0.0005 508:0.0002 509:0.0002 510:0.0004 511:0.0002 512:0.0003 513:0 514:0 515:0 516:0 517:0 518:0 519:0 520:0 521:0 522:0 523:0 524:0 525:0 526:0 527:0 528:0 529:0 530:0 531:0.0004 532:0.0021 533:0.0026 534:0.0025 535:0.0024 536:0.0011 537:0.0014 538:0.002 539:0.0006 540:0.0001 541:0.0003 542:0.0004 543:0.0004 544:0.0006 545:0.0004 546:0.0009 547:0.003 548:0.0063 549:0.003 550:0.001 551:0.0033 552:0.005 553:0.0054 554:0.0209 555:0.0514 556:0.0829 557:0.0261 558:0.0362 559:0.0162 560:0.0047 561:0.0042 562:0.0022 563:0.0044 564:0.0025 565:0.0047 566:0.0029 567:0.0024 568:0.0024 569:0.0022 570:0.0035 571:0.0015 572:0.0023 573:0.0012 574:0.0012 575:0.0026 576:0.006 577:0.0117 578:0.0067 579:0.0004 580:0.0006 581:0.002 582:0.0057 583:0.014 584:0.1072 585:0.2521 586:0.239 587:0.0174 588:0.0137 589:0.0086 590:0.0014 591:0.001 592:0.001 593:0.0005 594:0.0004 595:0.0008 596:0.0043 597:0.0033 598:0.0005 599:0.0001 600:0.0002 601:0.0002 602:0.0001 603:0.0007 604:0.0014 605:0.0014 606:0.0009 607:0.0032 608:0.0041 609:0.0027 610:0.0045 611:0.004 612:0.0049 613:0.0116 614:0.0164 615:0.0126 616:0.0045 617:0.0051 618:0.0063 619:0.0016 620:0.0036 621:0.0033 622:0.0022 623:0.0053 624:0.0095 625:0.0184 626:0.0322 627:0.0272 628:0.009 629:0.0019 630:0.0046 631:0.0031 632:0.0068 633:0.0048 634:0.0032 635:0.0005 636:0.0004 637:0.0003 638:0.0004 639:0.0003 640:0.0001 641:0 642:0 643:0 644:0 645:0 646:0 647:0 648:0 649:0 650:0 651:0 652:0 653:0 654:0 655:0 656:0 657:0 658:0 659:0.0003 660:0.0025 661:0.0028 662:0.0034 663:0.0039 664:0.0031 665:0.0019 666:0.0026 667:0.0014 668:0.001 669:0.0012 670:0.0013 671:0.0006 672:0.0015 673:0.0027 674:0.0043 675:0.005 676:0.0086 677:0.0024 678:0.0087 679:0.0099 680:0.0055 681:0.0043 682:0.0353 683:0.092 684:0.0348 685:0.0603 686:0.078 687:0.0104 688:0.0023 689:0.0011 690:0.0015 691:0.0064 692:0.0088 693:0.0047 694:0.0051 695:0.0049 696:0.0019 697:0.002 698:0.0021 699:0.0015 700:0.0033 701:0.0025 702:0.0038 703:0.0031 704:0.003 705:0.015 706:0.012 707:0.0042 708:0.0046 709:0.0044 710:0.0029 711:0.0077 712:0.2637 713:0.5754 714:0.1264 715:0.0128 716:0.0131 717:0.006 718:0.0026 719:0.0016 720:0.001 721:0.0008 722:0.0007 723:0.0005 724:0.0008 725:0.0004 726:0.0001 727:0.0001 728:0.0004 729:0.0003 730:0.0001 731:0.0004 732:0.0005 733:0.0004 734:0.0009 735:0.0029 736:0.0095 737:0.006 738:0.0042 739:0.0047 740:0.0258 741:0.057 742:0.0353 743:0.0212 744:0.0103 745:0.0131 746:0.009 747:0.011 748:0.009 749:0.0048 750:0.0054 751:0.0033 752:0.0015 753:0.0107 754:0.0433 755:0.0325 756:0.0081 757:0.0029 758:0.0092 759:0.0113 760:0.0083 761:0.0042 762:0.0056 763:0.0012 764:0.0009 765:0.0017 766:0.0014 767:0.0014 768:0.0004 769:0 770:0 771:0 772:0 773:0 774:0 775:0 776:0 777:0 778:0 779:0 780:0 781:0 782:0 783:0 784:0 785:0 786:0 787:0.0003 788:0.0022 789:0.0016 790:0.0026 791:0.0037 792:0.0069 793:0.0035 794:0.0033 795:0.0027 796:0.0014 797:0.0006 798:0.0004 799:0.0006 800:0.0004 801:0.0011 802:0.0019 803:0.0032 804:0.0057 805:0.0022 806:0.015 807:0.0125 808:0.0023 809:0.0068 810:0.0374 811:0.064 812:0.0535 813:0.0641 814:0.0645 815:0.0189 816:0.0046 817:0.0016 818:0.0005 819:0.0011 820:0.0027 821:0.0036 822:0.003 823:0.002 824:0.0006 825:0.0013 826:0.0013 827:0.0007 828:0.0005 829:0.0006 830:0.001 831:0.0007 832:0.0054 833:0.0252 834:0.0116 835:0.0049 836:0.0068 837:0.0216 838:0.0318 839:0.0276 840:0.2405 841:0.3627 842:0.0968 843:0.0451 844:0.0323 845:0.0085 846:0.0038 847:0.0008 848:0.0003 849:0.0007 850:0.001 851:0.0018 852:0.0039 853:0.0025 854:0.0008 855:0.0002 856:0.0002 857:0.0001 858:0.0001 859:0.0001 860:0.0004 861:0.0007 862:0.0013 863:0.0059 864:0.0067 865:0.0057 866:0.0122 867:0.0106 868:0.0431 869:0.0549 870:0.0204 871:0.0162 872:0.0226 873:0.0045 874:0.0082 875:0.0098 876:0.0125 877:0.0084 878:0.0092 879:0.0079 880:0.0066 881:0.0049 882:0.0079 883:0.005 884:0.0037 885:0.0035 886:0.0081 887:0.0108 888:0.004 889:0.0019 890:0.006 891:0.0035 892:0.0006 893:0.0013 894:0.001 895:0.0006 896:0.0003 897:0 898:0 899:0 900:0 901:0 902:0 903:0 904:0 905:0 906:0 907:0 908:0 909:0 910:0 911:0 912:0 913:0 914:0 915:0.0006 916:0.0032 917:0.0019 918:0.0035 919:0.0082 920:0.005 921:0.0051 922:0.0017 923:0.0034 924:0.0057 925:0.0029 926:0.0022 927:0.0016 928:0.0042 929:0.0046 930:0.0008 931:0.0007 932:0.007 933:0.0099 934:0.0122 935:0.0154 936:0.0069 937:0.0049 938:0.0313 939:0.0801 940:0.114 941:0.0575 942:0.0182 943:0.0044 944:0.0064 945:0.0078 946:0.0039 947:0.0068 948:0.01 949:0.0044 950:0.0021 951:0.0014 952:0.0015 953:0.0007 954:0.0004 955:0.0007 956:0.0003 957:0.0003 958:0.0002 959:0.0007 960:0.0054 961:0.0227 962:0.0121 963:0.004 964:0.007 965:0.0095 966:0.0227 967:0.024 968:0.1469 969:0.4657 970:0.5413 971:0.0947 972:0.046 973:0.0079 974:0.0011 975:0.0018 976:0.0023 977:0.0024 978:0.0011 979:0.0021 980:0.0051 981:0.0023 982:0.0014 983:0.0004 984:0.0002 985:0.0002 986:0.0001 987:0.0003 988:0.0006 989:0.0011 990:0.001 991:0.0049 992:0.012 993:0.0284 994:0.0486 995:0.041 996:0.0368 997:0.045 998:0.053 999:0.0423 1000:0.0178 1001:0.0025 1002:0.0156 1003:0.0305 1004:0.0234 1005:0.0133 1006:0.0084 1007:0.0272 1008:0.0436 1009:0.0285 1010:0.0077 1011:0.0092 1012:0.0114 1013:0.0097 1014:0.0191 1015:0.0147 1016:0.008 1017:0.0045 1018:0.0076 1019:0.0041 1020:0.001 1021:0.0005 1022:0.0006 1023:0.0003 1024:0.0001 1025:0 1026:0 1027:0 1028:0 1029:0 1030:0 1031:0 1032:0 1033:0 1034:0 1035:0 1036:0 1037:0 1038:0 1039:0 1040:0 1041:0 1042:0.0001 1043:0.0021 1044:0.0048 1045:0.0034 1046:0.0064 1047:0.0099 1048:0.0071 1049:0.0091 1050:0.0035 1051:0.0027 1052:0.0023 1053:0.0015 1054:0.002 1055:0.0016 1056:0.003 1057:0.0039 1058:0.0019 1059:0.0033 1060:0.0115 1061:0.0153 1062:0.0163 1063:0.0134 1064:0.0106 1065:0.0126 1066:0.05 1067:0.1026 1068:0.0785 1069:0.0178 1070:0.0113 1071:0.0062 1072:0.0107 1073:0.0098 1074:0.0114 1075:0.006 1076:0.014 1077:0.0041 1078:0.0029 1079:0.002 1080:0.001 1081:0.0007 1082:0.0007 1083:0.0041 1084:0.0043 1085:0.0012 1086:0.0004 1087:0.0035 1088:0.0308 1089:0.0248 1090:0.0071 1091:0.0053 1092:0.0022 1093:0.011 1094:0.0295 1095:0.0668 1096:0.7125 1097:1.7657 1098:1.0311 1099:0.1358 1100:0.0842 1101:0.0096 1102:0.0106 1103:0.0116 1104:0.0066 1105:0.0047 1106:0.0033 1107:0.0017 1108:0.0037 1109:0.0015 1110:0.0012 1111:0.0003 1112:0.0001 1113:0.0004 1114:0.0004 1115:0.0007 1116:0.0003 1117:0.0003 1118:0.0006 1119:0.0059 1120:0.0967 1121:0.2137 1122:0.1164 1123:0.0761 1124:0.058 1125:0.0143 1126:0.0927 1127:0.1538 1128:0.113 1129:0.0362 1130:0.0573 1131:0.0725 1132:0.0148 1133:0.0135 1134:0.0596 1135:0.1448 1136:0.1541 1137:0.1111 1138:0.0352 1139:0.0431 1140:0.0347 1141:0.0091 1142:0.0157 1143:0.0071 1144:0.0079 1145:0.0088 1146:0.0128 1147:0.0065 1148:0.0014 1149:0.0009 1150:0.0002 1151:0.0003 1152:0.0003 1153:0 1154:0 1155:0 1156:0 1157:0 1158:0 1159:0 1160:0 1161:0 1162:0 1163:0 1164:0 1165:0 1166:0 1167:0 1168:0 1169:0 1170:0.0002 1171:0.0047 1172:0.0052 1173:0.0029 1174:0.009 1175:0.007 1176:0.0101 1177:0.0195 1178:0.0062 1179:0.0037 1180:0.0041 1181:0.0013 1182:0.0007 1183:0.0003 1184:0.0004 1185:0.0007 1186:0.0015 1187:0.0038 1188:0.0299 1189:0.028 1190:0.0126 1191:0.0084 1192:0.0129 1193:0.0368 1194:0.0711 1195:0.2029 1196:0.3728 1197:0.1244 1198:0.0324 1199:0.0144 1200:0.0075 1201:0.0082 1202:0.0215 1203:0.0239 1204:0.0135 1205:0.0037 1206:0.0016 1207:0.0012 1208:0.0013 1209:0.0023 1210:0.0034 1211:0.0042 1212:0.0038 1213:0.002 1214:0.0009 1215:0.0067 1216:0.0228 1217:0.0202 1218:0.02 1219:0.0239 1220:0.0137 1221:0.0558 1222:0.162 1223:0.228 1224:2.4117 1225:3.2801 1226:0.5719 1227:0.1877 1228:0.1718 1229:0.0146 1230:0.0198 1231:0.0308 1232:0.0061 1233:0.0052 1234:0.0096 1235:0.0058 1236:0.0055 1237:0.0028 1238:0.0025 1239:0.0003 1240:0.0001 1241:0.0002 1242:0.0002 1243:0.0007 1244:0.0007 1245:0.0007 1246:0.0007 1247:0.0052 1248:0.1191 1249:0.1452 1250:0.0609 1251:0.0507 1252:0.0481 1253:0.0439 1254:0.0959 1255:0.2071 1256:0.162 1257:0.1245 1258:0.0933 1259:0.0358 1260:0.0782 1261:0.0995 1262:0.1141 1263:0.1088 1264:0.0296 1265:0.0174 1266:0.0218 1267:0.0505 1268:0.0243 1269:0.013 1270:0.0046 1271:0.0078 1272:0.0093 1273:0.0086 1274:0.0207 1275:0.0083 1276:0.0018 1277:0.0012 1278:0.0003 1279:0.0009 1280:0.001 1281:0 1282:0 1283:0 1284:0 1285:0 1286:0 1287:0 1288:0 1289:0 1290:0 1291:0 1292:0 1293:0 1294:0 1295:0 1296:0 1297:0 1298:0.0002 1299:0.0024 1300:0.0021 1301:0.0028 1302:0.0042 1303:0.0028 1304:0.0044 1305:0.0052 1306:0.0033 1307:0.0012 1308:0.0028 1309:0.002 1310:0.001 1311:0.0009 1312:0.0004 1313:0.0007 1314:0.0014 1315:0.0011 1316:0.0093 1317:0.0185 1318:0.0136 1319:0.0087 1320:0.015 1321:0.0839 1322:0.1633 1323:0.0714 1324:0.194 1325:0.1643 1326:0.0236 1327:0.0174 1328:0.0103 1329:0.0105 1330:0.0117 1331:0.0141 1332:0.0158 1333:0.0091 1334:0.0021 1335:0.0049 1336:0.0044 1337:0.004 1338:0.0048 1339:0.0018 1340:0.003 1341:0.0041 1342:0.0015 1343:0.0009 1344:0.0031 1345:0.0085 1346:0.0284 1347:0.0316 1348:0.021 1349:0.0495 1350:0.1606 1351:0.1471 1352:0.7655 1353:0.6087 1354:0.3552 1355:0.2576 1356:0.2015 1357:0.0242 1358:0.0166 1359:0.0106 1360:0.0036 1361:0.0029 1362:0.0076 1363:0.0062 1364:0.0048 1365:0.0028 1366:0.0024 1367:0.001 1368:0.0004 1369:0.0005 1370:0.0002 1371:0.0003 1372:0.0011 1373:0.0009 1374:0.0006 1375:0.0076 1376:0.0529 1377:0.1237 1378:0.0504 1379:0.0236 1380:0.0435 1381:0.028 1382:0.0776 1383:0.2357 1384:0.1708 1385:0.0273 1386:0.0453 1387:0.0259 1388:0.0435 1389:0.0659 1390:0.0626 1391:0.0774 1392:0.0325 1393:0.0167 1394:0.0044 1395:0.0058 1396:0.0146 1397:0.0092 1398:0.0144 1399:0.048 1400:0.0246 1401:0.0404 1402:0.0604 1403:0.0106 1404:0.0013 1405:0.0011 1406:0.0008 1407:0.0006 1408:0.0002 1409:0 1410:0 1411:0 1412:0 1413:0 1414:0 1415:0 1416:0 1417:0 1418:0 1419:0 1420:0 1421:0 1422:0 1423:0 1424:0 1425:0 1426:0 1427:0.0014 1428:0.0052 1429:0.0053 1430:0.0043 1431:0.0059 1432:0.0094 1433:0.0069 1434:0.0072 1435:0.0011 1436:0.0006 1437:0.0015 1438:0.0018 1439:0.0033 1440:0.0021 1441:0.0005 1442:0.0004 1443:0.0029 1444:0.0056 1445:0.0025 1446:0.0068 1447:0.0129 1448:0.0078 1449:0.0186 1450:0.0871 1451:0.2477 1452:0.206 1453:0.0457 1454:0.0246 1455:0.0305 1456:0.0155 1457:0.0353 1458:0.0269 1459:0.0409 1460:0.0884 1461:0.0227 1462:0.0032 1463:0.0022 1464:0.0048 1465:0.0046 1466:0.0034 1467:0.0037 1468:0.0047 1469:0.0027 1470:0.0027 1471:0.002 1472:0.0031 1473:0.0119 1474:0.0126 1475:0.0036 1476:0.0038 1477:0.0204 1478:0.1108 1479:0.6021 1480:1.6703 1481:1.1136 1482:0.5752 1483:0.1192 1484:0.0998 1485:0.0126 1486:0.0041 1487:0.0025 1488:0.0019 1489:0.0037 1490:0.0078 1491:0.0117 1492:0.0179 1493:0.0042 1494:0.0005 1495:0.0004 1496:0.0007 1497:0.0003 1498:0.0001 1499:0.0002 1500:0.0002 1501:0.001 1502:0.0008 1503:0.0089 1504:0.0205 1505:0.037 1506:0.0337 1507:0.0182 1508:0.0203 1509:0.0283 1510:0.0565 1511:0.0368 1512:0.0223 1513:0.0106 1514:0.0229 1515:0.072 1516:0.0393 1517:0.0216 1518:0.0192 1519:0.045 1520:0.0387 1521:0.0184 1522:0.0034 1523:0.0012 1524:0.0027 1525:0.0177 1526:0.0339 1527:0.0691 1528:0.0319 1529:0.0416 1530:0.1073 1531:0.0286 1532:0.0023 1533:0.0035 1534:0.0038 1535:0.0012 1536:0.0005 1537:0 1538:0 1539:0 1540:0 1541:0 1542:0 1543:0 1544:0 1545:0 1546:0 1547:0 1548:0 1549:0 1550:0 1551:0 1552:0 1553:0 1554:0 1555:0.0004 1556:0.0012 1557:0.0036 1558:0.0095 1559:0.026 1560:0.0354 1561:0.0117 1562:0.007 1563:0.0012 1564:0.0008 1565:0.002 1566:0.0021 1567:0.0011 1568:0.0018 1569:0.0017 1570:0.0019 1571:0.0042 1572:0.0144 1573:0.0066 1574:0.0103 1575:0.0085 1576:0.0022 1577:0.0142 1578:0.0676 1579:0.3917 1580:0.4775 1581:0.1204 1582:0.1869 1583:0.1367 1584:0.0378 1585:0.041 1586:0.0461 1587:0.0325 1588:0.0608 1589:0.0356 1590:0.0081 1591:0.0054 1592:0.0014 1593:0.002 1594:0.006 1595:0.0054 1596:0.0026 1597:0.0009 1598:0.0029 1599:0.004 1600:0.0089 1601:0.0185 1602:0.0069 1603:0.0075 1604:0.0053 1605:0.0132 1606:0.1141 1607:0.3119 1608:0.8186 1609:1.0286 1610:0.5108 1611:0.1325 1612:0.0933 1613:0.0183 1614:0.0123 1615:0.0015 1616:0.001 1617:0.0031 1618:0.0032 1619:0.0047 1620:0.0104 1621:0.004 1622:0.0013 1623:0.0006 1624:0.0012 1625:0.0007 1626:0.0002 1627:0.0003 1628:0.0002 1629:0.0009 1630:0.0015 1631:0.0058 1632:0.0123 1633:0.0131 1634:0.0081 1635:0.0108 1636:0.0282 1637:0.0292 1638:0.0588 1639:0.088 1640:0.0305 1641:0.0137 1642:0.0335 1643:0.0533 1644:0.0272 1645:0.0111 1646:0.0263 1647:0.0249 1648:0.0277 1649:0.0311 1650:0.035 1651:0.0437 1652:0.0093 1653:0.0248 1654:0.046 1655:0.0284 1656:0.009 1657:0.0715 1658:0.1903 1659:0.0585 1660:0.0089 1661:0.0062 1662:0.0057 1663:0.0012 1664:0.0018 1665:0 1666:0 1667:0 1668:0 1669:0 1670:0 1671:0 1672:0 1673:0 1674:0 1675:0 1676:0 1677:0 1678:0 1679:0 1680:0 1681:0 1682:0 1683:0.0017 1684:0.0049 1685:0.0261 1686:0.0318 1687:0.028 1688:0.0407 1689:0.0151 1690:0.0058 1691:0.0016 1692:0.0012 1693:0.003 1694:0.0043 1695:0.003 1696:0.0014 1697:0.0017 1698:0.0018 1699:0.0075 1700:0.0244 1701:0.0203 1702:0.016 1703:0.0135 1704:0.0126 1705:0.0351 1706:0.3912 1707:0.939 1708:0.4735 1709:0.1195 1710:0.1592 1711:0.1684 1712:0.0756 1713:0.0202 1714:0.0157 1715:0.0176 1716:0.0192 1717:0.0188 1718:0.0088 1719:0.0091 1720:0.0041 1721:0.0023 1722:0.0027 1723:0.0042 1724:0.0013 1725:0.0004 1726:0.001 1727:0.0024 1728:0.0095 1729:0.0105 1730:0.0034 1731:0.0118 1732:0.0096 1733:0.0084 1734:0.0094 1735:0.023 1736:0.2589 1737:0.6959 1738:0.3131 1739:0.1038 1740:0.1342 1741:0.0768 1742:0.0142 1743:0.0013 1744:0.0027 1745:0.0061 1746:0.0069 1747:0.0036 1748:0.007 1749:0.0023 1750:0.0019 1751:0.0007 1752:0.001 1753:0.0007 1754:0.0002 1755:0.0005 1756:0.0009 1757:0.0009 1758:0.001 1759:0.01 1760:0.0238 1761:0.0259 1762:0.0264 1763:0.0209 1764:0.0064 1765:0.0152 1766:0.0129 1767:0.0339 1768:0.0407 1769:0.0255 1770:0.0413 1771:0.009 1772:0.0052 1773:0.0228 1774:0.043 1775:0.0252 1776:0.0438 1777:0.0373 1778:0.1817 1779:0.1848 1780:0.0157 1781:0.0187 1782:0.0256 1783:0.0126 1784:0.0106 1785:0.0786 1786:0.0946 1787:0.0086 1788:0.0038 1789:0.0047 1790:0.0028 1791:0.0004 1792:0.0003 1793:0 1794:0 1795:0 1796:0 1797:0 1798:0 1799:0 1800:0 1801:0 1802:0 1803:0 1804:0 1805:0 1806:0 1807:0 1808:0 1809:0 1810:0.0001 1811:0.0184 1812:0.0691 1813:0.0709 1814:0.0648 1815:0.0379 1816:0.0331 1817:0.02 1818:0.0118 1819:0.0019 1820:0.0018 1821:0.0012 1822:0.0009 1823:0.0012 1824:0.0006 1825:0.0013 1826:0.0023 1827:0.0163 1828:0.0126 1829:0.0051 1830:0.0192 1831:0.0203 1832:0.0236 1833:0.046 1834:0.3069 1835:3.3808 1836:7.6913 1837:2.0491 1838:0.4338 1839:0.1498 1840:0.228 1841:0.0907 1842:0.0235 1843:0.065 1844:0.0482 1845:0.0429 1846:0.0317 1847:0.0164 1848:0.0049 1849:0.006 1850:0.0026 1851:0.0004 1852:0.0003 1853:0.0008 1854:0.0017 1855:0.0016 1856:0.0099 1857:0.0127 1858:0.0031 1859:0.0045 1860:0.0268 1861:0.0712 1862:0.0391 1863:0.0505 1864:0.1559 1865:3.1469 1866:3.9894 1867:0.5998 1868:0.2521 1869:0.2186 1870:0.0673 1871:0.0131 1872:0.0068 1873:0.0044 1874:0.0027 1875:0.0038 1876:0.0047 1877:0.0014 1878:0.0009 1879:0.0003 1880:0.0004 1881:0.0007 1882:0.0001 1883:0.0001 1884:0.0002 1885:0.0002 1886:0.0037 1887:0.0491 1888:0.1138 1889:0.0519 1890:0.0277 1891:0.0164 1892:0.014 1893:0.0096 1894:0.0577 1895:0.0789 1896:0.053 1897:0.0157 1898:0.0145 1899:0.0202 1900:0.0243 1901:0.0072 1902:0.0437 1903:0.0721 1904:0.068 1905:0.0528 1906:0.2448 1907:0.1886 1908:0.0247 1909:0.0081 1910:0.0064 1911:0.0067 1912:0.0211 1913:0.4728 1914:0.6249 1915:0.0639 1916:0.0047 1917:0.0085 1918:0.0055 1919:0.0024 1920:0.001 1921:0 1922:0 1923:0 1924:0 1925:0 1926:0 1927:0 1928:0 1929:0 1930:0 1931:0 1932:0 1933:0 1934:0 1935:0 1936:0 1937:0 1938:0.0009 1939:0.0704 1940:0.428 1941:0.2962 1942:0.2054 1943:0.08 1944:0.0468 1945:0.07 1946:0.0216 1947:0.0074 1948:0.0063 1949:0.0097 1950:0.0062 1951:0.0039 1952:0.0029 1953:0.0021 1954:0.0051 1955:0.0207 1956:0.0429 1957:0.0279 1958:0.0211 1959:0.031 1960:0.0351 1961:0.0377 1962:0.2039 1963:11.9237 1964:38.8297 1965:15.7868 1966:3.3527 1967:0.6078 1968:0.6087 1969:0.1997 1970:0.0663 1971:0.3591 1972:0.4205 1973:0.0714 1974:0.0309 1975:0.0268 1976:0.0098 1977:0.0167 1978:0.0177 1979:0.0072 1980:0.002 1981:0.0006 1982:0.0011 1983:0.0014 1984:0.0058 1985:0.0284 1986:0.0299 1987:0.0187 1988:0.0414 1989:0.0623 1990:0.0562 1991:0.0427 1992:0.6396 1993:17.7562 1994:23.4291 1995:2.3173 1996:1.2036 1997:0.8584 1998:0.2183 1999:0.0415 2000:0.0285 2001:0.0053 2002:0.0035 2003:0.0022 2004:0.0005 2005:0.0014 2006:0.0033 2007:0.0019 2008:0.0005 2009:0.0002 2010:0.0001 2011:0.0001 2012:0.0002 2013:0.0003 2014:0.0158 2015:0.339 2016:0.3451 2017:0.0759 2018:0.0375 2019:0.028 2020:0.0261 2021:0.0244 2022:0.099 2023:0.1091 2024:0.1022 2025:0.0599 2026:0.0203 2027:0.0331 2028:0.0532 2029:0.025 2030:0.0928 2031:0.1407 2032:0.2184 2033:0.0798 2034:0.0824 2035:0.0457 2036:0.0284 2037:0.0335 2038:0.0149 2039:0.0603 2040:0.3513 2041:2.886 2042:2.2326 2043:0.1382 2044:0.0128 2045:0.0028 2046:0.0082 2047:0.0124 2048:0.0024 2049:0 2050:0 2051:0 2052:0 2053:0 2054:0 2055:0 2056:0 2057:0 2058:0 2059:0 2060:0 2061:0 2062:0 2063:0 2064:0 2065:0 2066:0.0048 2067:0.3845 2068:0.7922 2069:0.1539 2070:0.3014 2071:0.1901 2072:0.0685 2073:0.0477 2074:0.018 2075:0.0162 2076:0.0066 2077:0.0111 2078:0.008 2079:0.0017 2080:0.0019 2081:0.0017 2082:0.0121 2083:0.3319 2084:0.5247 2085:0.086 2086:0.0453 2087:0.033 2088:0.0095 2089:0.0256 2090:1.0903 2091:22.1562 2092:33.8418 2093:7.9711 2094:2.0957 2095:2.7787 2096:2.3929 2097:0.181 2098:0.2943 2099:0.3204 2100:0.2468 2101:0.0677 2102:0.0127 2103:0.0132 2104:0.0075 2105:0.0128 2106:0.0095 2107:0.004 2108:0.0013 2109:0.0003 2110:0.0005 2111:0.0155 2112:0.0597 2113:0.0384 2114:0.0219 2115:0.0147 2116:0.0135 2117:0.0465 2118:0.0521 2119:0.177 2120:5.3096 2121:43.9675 2122:28.4013 2123:5.2198 2124:2.0717 2125:1.1276 2126:0.2926 2127:0.0692 2128:0.0633 2129:0.0067 2130:0.0058 2131:0.0035 2132:0.0009 2133:0.0027 2134:0.0051 2135:0.0033 2136:0.0014 2137:0.0013 2138:0.0005 2139:0.0002 2140:0.0002 2141:0.0005 2142:0.0115 2143:0.8075 2144:1.5473 2145:0.2217 2146:0.0736 2147:0.1019 2148:0.1769 2149:0.1335 2150:0.2602 2151:0.1485 2152:0.0841 2153:0.0675 2154:0.0522 2155:0.0611 2156:0.063 2157:0.0522 2158:0.2442 2159:0.2761 2160:0.2398 2161:0.2424 2162:0.1865 2163:0.1637 2164:0.1191 2165:0.1589 2166:0.2006 2167:0.2136 2168:1.8637 2169:6.0737 2170:1.6661 2171:0.1398 2172:0.0794 2173:0.0153 2174:0.0061 2175:0.0053 2176:0.0024 2177:0 2178:0 2179:0 2180:0 2181:0 2182:0 2183:0 2184:0 2185:0 2186:0 2187:0 2188:0 2189:0 2190:0 2191:0 2192:0 2193:0 2194:0.0412 2195:1.7546 2196:2.8822 2197:0.5205 2198:0.3824 2199:0.2205 2200:0.1212 2201:0.2954 2202:0.1784 2203:0.0766 2204:0.0151 2205:0.0047 2206:0.011 2207:0.0069 2208:0.0159 2209:0.0175 2210:0.031 2211:1.1053 2212:2.6975 2213:0.6601 2214:0.0505 2215:0.0669 2216:0.0472 2217:0.0485 2218:9.875 2219:52.3393 2220:22.3275 2221:6.6969 2222:8.3149 2223:23.7459 2224:13.3126 2225:0.6377 2226:0.235 2227:0.1563 2228:0.0956 2229:0.1426 2230:0.0886 2231:0.0122 2232:0.0119 2233:0.0056 2234:0.0032 2235:0.0004 2236:0.001 2237:0.0017 2238:0.0014 2239:0.1252 2240:1.0918 2241:0.7067 2242:0.0286 2243:0.005 2244:0.0453 2245:0.0856 2246:0.1634 2247:0.4936 2248:27.832 2249:73.738 2250:15.3406 2251:9.3781 2252:17.935 2253:17.2746 2254:1.915 2255:0.0929 2256:0.0371 2257:0.0084 2258:0.0032 2259:0.0017 2260:0.0048 2261:0.005 2262:0.0036 2263:0.0059 2264:0.0011 2265:0.0008 2266:0.0007 2267:0.0002 2268:0.0003 2269:0.0005 2270:0.0012 2271:0.7514 2272:5.0332 2273:2.7665 2274:0.3078 2275:0.1659 2276:0.1908 2277:0.4962 2278:0.9607 2279:0.4036 2280:0.1514 2281:0.3433 2282:0.1309 2283:0.1548 2284:0.3869 2285:0.3732 2286:3.2321 2287:3.5435 2288:8.7772 2289:24.2493 2290:27.6091 2291:31.8169 2292:36.1933 2293:33.8031 2294:36.8328 2295:18.6255 2296:12.5678 2297:10.2535 2298:0.7704 2299:0.367 2300:0.1096 2301:0.0212 2302:0.0233 2303:0.0212 2304:0.0096 2305:0 2306:0 2307:0 2308:0 2309:0 2310:0 2311:0 2312:0 2313:0 2314:0 2315:0 2316:0 2317:0 2318:0 2319:0 2320:0 2321:0.0002 2322:0.1823 2323:2.9943 2324:2.9081 2325:1.0142 2326:0.3227 2327:0.3273 2328:0.5149 2329:1.0146 2330:0.5235 2331:0.522 2332:0.1804 2333:0.0102 2334:0.0297 2335:0.0396 2336:0.0572 2337:0.0237 2338:0.0274 2339:0.3661 2340:3.3314 2341:2.8176 2342:0.5097 2343:0.1101 2344:0.057 2345:0.2072 2346:28.33 2347:107.9348 2348:30.8531 2349:15.9709 2350:34.5806 2351:72.0582 2352:23.9594 2353:1.0973 2354:0.6332 2355:0.579 2356:0.2496 2357:0.1176 2358:0.0654 2359:0.0294 2360:0.0172 2361:0.0125 2362:0.0128 2363:0.0044 2364:0.0031 2365:0.0026 2366:0.0024 2367:0.1658 2368:2.1416 2369:5.2439 2370:5.1443 2371:2.8249 2372:0.9397 2373:1.4194 2374:1.2648 2375:2.414 2376:45.1357 2377:61.8867 2378:6.6786 2379:28.971 2380:88.4257 2381:54.5782 2382:2.0924 2383:0.5541 2384:0.1902 2385:0.0295 2386:0.0094 2387:0.0073 2388:0.0294 2389:0.0219 2390:0.004 2391:0.0049 2392:0.0071 2393:0.0036 2394:0.001 2395:0.0006 2396:0.0003 2397:0.0004 2398:0.0006 2399:0.2098 2400:7.508 2401:17.3201 2402:20.468 2403:19.8065 2404:11.2942 2405:2.9663 2406:4.0362 2407:4.9159 2408:1.3382 2409:1.1064 2410:7.5648 2411:33.0862 2412:77.4355 2413:131.805 2414:219.9894 2415:311.2965 2416:285.7164 2417:245.6118 2418:266.0599 2419:272.2975 2420:272.5692 2421:232.7744 2422:156.8028 2423:93.1927 2424:52.1404 2425:9.6288 2426:0.7078 2427:0.2418 2428:0.2862 2429:0.2879 2430:0.1304 2431:0.0284 2432:0.0165 2433:0 2434:0 2435:0 2436:0 2437:0 2438:0 2439:0 2440:0 2441:0 2442:0 2443:0 2444:0 2445:0 2446:0 2447:0 2448:0 2449:0.0021 2450:0.3553 2451:3.8433 2452:3.0855 2453:0.9073 2454:0.3632 2455:0.322 2456:0.5069 2457:0.5137 2458:0.3139 2459:0.4527 2460:0.1559 2461:0.0417 2462:0.017 2463:0.0268 2464:0.0358 2465:0.0123 2466:0.0049 2467:0.0817 2468:5.0477 2469:25.8732 2470:17.848 2471:3.3867 2472:1.0364 2473:1.1233 2474:55.6002 2475:137.946 2476:27.3692 2477:73.9935 2478:193.7834 2479:163.703 2480:29.8605 2481:2.8398 2482:1.5874 2483:0.4046 2484:0.1702 2485:0.0265 2486:0.054 2487:0.0394 2488:0.0066 2489:0.0122 2490:0.0175 2491:0.0228 2492:0.0114 2493:0.0013 2494:0.0011 2495:0.0739 2496:0.7894 2497:10.2521 2498:28.6923 2499:33.6365 2500:29.4147 2501:39.3924 2502:38.0771 2503:13.865 2504:41.7579 2505:41.0243 2506:3.7241 2507:102.9036 2508:212.5785 2509:43.3166 2510:2.2744 2511:0.6289 2512:0.1132 2513:0.0258 2514:0.0116 2515:0.0053 2516:0.0265 2517:0.0259 2518:0.0045 2519:0.0056 2520:0.0061 2521:0.0047 2522:0.0014 2523:0.0006 2524:0.0003 2525:0.0004 2526:0.0034 2527:0.0684 2528:4.6797 2529:35.9483 2530:107.7761 2531:189.9684 2532:227.718 2533:211.8793 2534:231.6413 2535:230.0323 2536:162.2024 2537:208.0313 2538:383.1344 2539:659.1341 2540:667.7945 2541:630.0552 2542:619.0462 2543:425.9044 2544:209.582 2545:55.1744 2546:55.8051 2547:48.6074 2548:45.9769 2549:37.1809 2550:17.9767 2551:15.4903 2552:14.6491 2553:1.6057 2554:0.2376 2555:0.1775 2556:0.2023 2557:0.1479 2558:0.036 2559:0.0058 2560:0.0019 2561:0 2562:0 2563:0 2564:0 2565:0 2566:0 2567:0 2568:0 2569:0 2570:0 2571:0 2572:0 2573:0 2574:0 2575:0 2576:0 2577:0.0055 2578:0.1647 2579:1.1518 2580:2.1683 2581:0.6748 2582:0.1259 2583:0.3815 2584:0.701 2585:0.4953 2586:0.2352 2587:0.187 2588:0.0563 2589:0.0264 2590:0.007 2591:0.0121 2592:0.0134 2593:0.0065 2594:0.0019 2595:0.0897 2596:2.4307 2597:29.9011 2598:68.0982 2599:69.8889 2600:44.6862 2601:8.9025 2602:69.3641 2603:105.6829 2604:10.2876 2605:134.058 2606:491.8542 2607:181.6492 2608:18.6511 2609:2.8576 2610:1.5109 2611:0.8899 2612:0.2311 2613:0.1017 2614:0.1106 2615:0.132 2616:0.0217 2617:0.0123 2618:0.0504 2619:0.0682 2620:0.0221 2621:0.0024 2622:0.004 2623:0.065 2624:0.2086 2625:0.8912 2626:2.4375 2627:5.8947 2628:7.2256 2629:23.9522 2630:101.495 2631:86.7766 2632:19.3017 2633:16.236 2634:5.5567 2635:71.8745 2636:93.4335 2637:7.6494 2638:0.8913 2639:0.1278 2640:0.1393 2641:0.0964 2642:0.0339 2643:0.0057 2644:0.0215 2645:0.0209 2646:0.0137 2647:0.005 2648:0.0048 2649:0.0039 2650:0.001 2651:0.0002 2652:0.0004 2653:0.0006 2654:0.0035 2655:0.0192 2656:0.2265 2657:1.7095 2658:8.1391 2659:20.9411 2660:47.8511 2661:62.6029 2662:75.1303 2663:257.0085 2664:456.489 2665:398.3313 2666:283.447 2667:173.9763 2668:66.3425 2669:28.1355 2670:26.9811 2671:6.0117 2672:3.4904 2673:1.6797 2674:0.2678 2675:0.2571 2676:0.2458 2677:0.4458 2678:0.3816 2679:0.3011 2680:0.1459 2681:0.1594 2682:0.1972 2683:0.0778 2684:0.0084 2685:0.0031 2686:0.0014 2687:0.0005 2688:0.0008 2689:0 2690:0 2691:0 2692:0 2693:0 2694:0 2695:0 2696:0 2697:0 2698:0 2699:0 2700:0 2701:0 2702:0 2703:0 2704:0 2705:0.0019 2706:0.0242 2707:0.1427 2708:0.5644 2709:0.3284 2710:0.0921 2711:0.1788 2712:0.339 2713:0.2332 2714:0.1128 2715:0.0575 2716:0.0184 2717:0.0111 2718:0.0016 2719:0.0014 2720:0.0018 2721:0.0022 2722:0.0047 2723:0.1581 2724:0.4943 2725:1.7771 2726:10.5203 2727:47.402 2728:122.1952 2729:95.5805 2730:100.4004 2731:91.4787 2732:6.8906 2733:36.6399 2734:121.0047 2735:66.7315 2736:5.7852 2737:0.88 2738:0.299 2739:0.2957 2740:0.1904 2741:0.2053 2742:0.1253 2743:0.0606 2744:0.0155 2745:0.0098 2746:0.0127 2747:0.0173 2748:0.0054 2749:0.0016 2750:0.0034 2751:0.0288 2752:0.1302 2753:0.051 2754:0.0156 2755:0.1297 2756:0.2822 2757:0.784 2758:38.1986 2759:241.733 2760:208.1826 2761:35.603 2762:3.8805 2763:29.3191 2764:30.0966 2765:4.1223 2766:0.4392 2767:0.0335 2768:0.0752 2769:0.1153 2770:0.0522 2771:0.0283 2772:0.0632 2773:0.0174 2774:0.0103 2775:0.0057 2776:0.0009 2777:0.0008 2778:0.0006 2779:0.0003 2780:0.0005 2781:0.0004 2782:0.0047 2783:0.0175 2784:0.0604 2785:0.0993 2786:0.0667 2787:0.2098 2788:0.3596 2789:0.4773 2790:2.3981 2791:9.7242 2792:19.4516 2793:10.1409 2794:1.0919 2795:0.7786 2796:0.4197 2797:0.1735 2798:0.3851 2799:0.3477 2800:0.1697 2801:0.2103 2802:0.1288 2803:0.0659 2804:0.0138 2805:0.0216 2806:0.0577 2807:0.0406 2808:0.0098 2809:0.0742 2810:0.2228 2811:0.0627 2812:0.0008 2813:0.0014 2814:0.0007 2815:0.0003 2816:0.0006 2817:0 2818:0 2819:0 2820:0 2821:0 2822:0 2823:0 2824:0 2825:0 2826:0 2827:0 2828:0 2829:0 2830:0 2831:0 2832:0 2833:0.0001 2834:0.003 2835:0.0187 2836:0.1515 2837:0.1744 2838:0.0798 2839:0.0876 2840:0.2363 2841:1.0653 2842:0.5264 2843:0.0815 2844:0.0176 2845:0.0055 2846:0.0043 2847:0.0043 2848:0.0056 2849:0.002 2850:0.0043 2851:0.0627 2852:0.167 2853:0.1664 2854:0.1898 2855:1.3841 2856:26.2058 2857:149.312 2858:307.2449 2859:106.8409 2860:7.8433 2861:6.652 2862:6.9861 2863:3.8737 2864:0.6689 2865:0.4463 2866:0.567 2867:0.1568 2868:0.146 2869:0.0963 2870:0.06 2871:0.0317 2872:0.012 2873:0.0065 2874:0.0086 2875:0.0058 2876:0.0019 2877:0.0011 2878:0.001 2879:0.0122 2880:0.0544 2881:0.0189 2882:0.0181 2883:0.0218 2884:0.0161 2885:0.0674 2886:6.0576 2887:112.7609 2888:214.3836 2889:43.2273 2890:3.9819 2891:4.336 2892:3.5353 2893:0.3863 2894:0.2358 2895:0.0558 2896:0.0378 2897:0.0846 2898:0.0337 2899:0.0193 2900:0.1145 2901:0.0489 2902:0.0028 2903:0.0019 2904:0.0004 2905:0.0004 2906:0.0003 2907:0.0003 2908:0.0006 2909:0.0002 2910:0.0052 2911:0.0572 2912:0.1263 2913:0.0659 2914:0.0818 2915:0.0781 2916:0.2441 2917:0.4311 2918:0.8662 2919:0.42 2920:0.5134 2921:0.5766 2922:0.4155 2923:0.1981 2924:0.1888 2925:0.2326 2926:0.0655 2927:0.0746 2928:0.077 2929:0.0544 2930:0.1365 2931:0.0924 2932:0.0456 2933:0.0115 2934:0.0286 2935:0.0462 2936:0.0166 2937:0.027 2938:0.0881 2939:0.0412 2940:0.0045 2941:0.0016 2942:0.0004 2943:0.0004 2944:0.0002 2945:0 2946:0 2947:0 2948:0 2949:0 2950:0 2951:0 2952:0 2953:0 2954:0 2955:0 2956:0 2957:0 2958:0 2959:0 2960:0 2961:0 2962:0.0008 2963:0.0287 2964:0.1527 2965:0.1246 2966:0.181 2967:0.1524 2968:0.5009 2969:1.2969 2970:0.3383 2971:0.0339 2972:0.019 2973:0.014 2974:0.0079 2975:0.0084 2976:0.0042 2977:0.0019 2978:0.0024 2979:0.064 2980:0.1569 2981:0.0446 2982:0.0102 2983:0.0758 2984:0.4745 2985:25.3741 2986:88.7337 2987:26.4973 2988:0.4842 2989:0.4943 2990:1.4104 2991:0.7594 2992:0.071 2993:0.2901 2994:0.3681 2995:0.0361 2996:0.2086 2997:0.1903 2998:0.054 2999:0.0585 3000:0.0125 3001:0.0044 3002:0.0035 3003:0.0025 3004:0.0012 3005:0.001 3006:0.0014 3007:0.0433 3008:0.1561 3009:0.0542 3010:0.0145 3011:0.0068 3012:0.0068 3013:0.0254 3014:0.1875 3015:7.7943 3016:22.348 3017:15.3041 3018:2.66 3019:0.7994 3020:0.636 3021:0.0655 3022:0.0371 3023:0.0291 3024:0.0277 3025:0.1182 3026:0.0532 3027:0.0633 3028:0.1841 3029:0.086 3030:0.0142 3031:0.0031 3032:0.0007 3033:0.0007 3034:0.0002 3035:0.0004 3036:0.0004 3037:0.0001 3038:0.0011 3039:0.0189 3040:0.1318 3041:0.0659 3042:0.0384 3043:0.0861 3044:0.1486 3045:0.1428 3046:0.1539 3047:0.1425 3048:0.2724 3049:0.162 3050:0.0574 3051:0.057 3052:0.08 3053:0.1623 3054:0.1122 3055:0.063 3056:0.0982 3057:0.0943 3058:0.0797 3059:0.1964 3060:0.0887 3061:0.0203 3062:0.0494 3063:0.0517 3064:0.0155 3065:0.0129 3066:0.0232 3067:0.0117 3068:0.0032 3069:0.0004 3070:0.0012 3071:0.0006 3072:0.0001 3073:0 3074:0 3075:0 3076:0 3077:0 3078:0 3079:0 3080:0 3081:0 3082:0 3083:0 3084:0 3085:0 3086:0 3087:0 3088:0 3089:0 3090:0.0002 3091:0.0065 3092:0.0305 3093:0.2091 3094:0.4712 3095:0.6973 3096:3.3083 3097:1.6207 3098:0.1742 3099:0.0958 3100:0.0542 3101:0.03 3102:0.033 3103:0.006 3104:0.0026 3105:0.0016 3106:0.0007 3107:0.0151 3108:0.0432 3109:0.025 3110:0.0159 3111:0.0522 3112:0.1441 3113:1.1918 3114:6.1509 3115:3.402 3116:0.8346 3117:0.3142 3118:0.375 3119:0.244 3120:0.0846 3121:0.1707 3122:0.3065 3123:0.1768 3124:0.2356 3125:0.2477 3126:0.1254 3127:0.0565 3128:0.0033 3129:0.0087 3130:0.0146 3131:0.0044 3132:0.0025 3133:0.0029 3134:0.0012 3135:0.0445 3136:0.1436 3137:0.0469 3138:0.0341 3139:0.0127 3140:0.0115 3141:0.0144 3142:0.0705 3143:0.589 3144:3.1512 3145:10.4495 3146:2.5925 3147:0.2831 3148:0.1439 3149:0.0176 3150:0.0078 3151:0.0105 3152:0.0296 3153:0.0458 3154:0.0288 3155:0.0889 3156:0.074 3157:0.0327 3158:0.0381 3159:0.035 3160:0.0024 3161:0.0008 3162:0.0005 3163:0.0005 3164:0.0009 3165:0.0006 3166:0.0008 3167:0.037 3168:0.1659 3169:0.0925 3170:0.0348 3171:0.066 3172:0.1494 3173:0.1915 3174:0.1188 3175:0.1587 3176:0.137 3177:0.0873 3178:0.098 3179:0.0616 3180:0.0641 3181:0.1054 3182:0.075 3183:0.0648 3184:0.0514 3185:0.0719 3186:0.0408 3187:0.06 3188:0.0256 3189:0.0234 3190:0.0658 3191:0.0446 3192:0.0407 3193:0.0499 3194:0.0766 3195:0.0244 3196:0.0031 3197:0.0015 3198:0.0029 3199:0.0009 3200:0.0001 3201:0 3202:0 3203:0 3204:0 3205:0 3206:0 3207:0 3208:0 3209:0 3210:0 3211:0 3212:0 3213:0 3214:0 3215:0 3216:0 3217:0 3218:0.0002 3219:0.0023 3220:0.008 3221:0.7742 3222:2.2351 3223:4.5746 3224:8.9213 3225:1.4785 3226:0.0795 3227:0.0471 3228:0.0441 3229:0.0434 3230:0.0377 3231:0.0082 3232:0.0012 3233:0.0008 3234:0.0005 3235:0.0069 3236:0.0675 3237:0.0514 3238:0.0282 3239:0.0491 3240:0.0268 3241:0.1494 3242:1.0348 3243:0.9601 3244:0.4122 3245:0.676 3246:0.8061 3247:0.1617 3248:0.0779 3249:0.0529 3250:0.3303 3251:0.898 3252:0.886 3253:0.445 3254:0.5698 3255:0.1714 3256:0.0049 3257:0.009 3258:0.01 3259:0.0039 3260:0.0037 3261:0.0023 3262:0.0014 3263:0.0107 3264:0.0774 3265:0.0911 3266:0.0421 3267:0.0126 3268:0.0071 3269:0.0037 3270:0.0141 3271:0.153 3272:0.9442 3273:5.0563 3274:3.2155 3275:0.4835 3276:0.265 3277:0.0102 3278:0.0463 3279:0.0397 3280:0.0204 3281:0.0307 3282:0.017 3283:0.0554 3284:0.1417 3285:0.042 3286:0.062 3287:0.0589 3288:0.005 3289:0.0015 3290:0.0005 3291:0.0004 3292:0.0005 3293:0.0005 3294:0.0031 3295:0.0343 3296:0.1326 3297:0.0775 3298:0.0402 3299:0.037 3300:0.0527 3301:0.078 3302:0.12 3303:0.0391 3304:0.0089 3305:0.0215 3306:0.0354 3307:0.0309 3308:0.0549 3309:0.0523 3310:0.0481 3311:0.0432 3312:0.0192 3313:0.0158 3314:0.0407 3315:0.0387 3316:0.0118 3317:0.0311 3318:0.0887 3319:0.0532 3320:0.0182 3321:0.0544 3322:0.1278 3323:0.0314 3324:0.0008 3325:0.0002 3326:0.0004 3327:0.0003 3328:0.0001 3329:0 3330:0 3331:0 3332:0 3333:0 3334:0 3335:0 3336:0 3337:0 3338:0 3339:0 3340:0 3341:0 3342:0 3343:0 3344:0 3345:0 3346:0.0007 3347:0.0128 3348:0.0125 3349:2.4682 3350:8.4434 3351:12.8035 3352:11.2635 3353:0.6473 3354:0.1583 3355:0.0833 3356:0.117 3357:0.0455 3358:0.0235 3359:0.0074 3360:0.0046 3361:0.0021 3362:0.0005 3363:0.039 3364:0.2305 3365:0.0987 3366:0.0179 3367:0.0166 3368:0.0104 3369:0.1238 3370:1.7312 3371:2.1231 3372:0.7587 3373:0.3167 3374:0.1172 3375:0.0645 3376:0.0754 3377:0.2321 3378:0.2441 3379:1.616 3380:6.6879 3381:14.8344 3382:5.5779 3383:0.655 3384:0.1526 3385:0.0759 3386:0.0262 3387:0.0133 3388:0.0214 3389:0.01 3390:0.0016 3391:0.0225 3392:0.1697 3393:0.3135 3394:0.1556 3395:0.0226 3396:0.0149 3397:0.0102 3398:0.0197 3399:0.5757 3400:3.16 3401:5.3768 3402:1.9239 3403:0.2047 3404:0.1537 3405:0.0538 3406:0.1651 3407:0.2211 3408:0.0626 3409:0.0511 3410:0.0593 3411:0.0364 3412:0.1021 3413:0.0478 3414:0.0193 3415:0.0233 3416:0.0055 3417:0.0028 3418:0.0009 3419:0.0006 3420:0.0005 3421:0.0009 3422:0.006 3423:0.0595 3424:0.2587 3425:0.1553 3426:0.0386 3427:0.0269 3428:0.0098 3429:0.0272 3430:0.0365 3431:0.0211 3432:0.0134 3433:0.0433 3434:0.0574 3435:0.1177 3436:0.0841 3437:0.0712 3438:0.0635 3439:0.0592 3440:0.0265 3441:0.0311 3442:0.0707 3443:0.0285 3444:0.0131 3445:0.018 3446:0.0075 3447:0.0153 3448:0.012 3449:0.0914 3450:0.1383 3451:0.0132 3452:0.0018 3453:0.001 3454:0.0003 3455:0.0002 3456:0.0001 3457:0 3458:0 3459:0 3460:0 3461:0 3462:0 3463:0 3464:0 3465:0 3466:0 3467:0 3468:0 3469:0 3470:0 3471:0 3472:0 3473:0 3474:0.0011 3475:0.022 3476:0.0231 3477:5.0899 3478:51.0578 3479:61.2008 3480:12.287 3481:0.2182 3482:0.099 3483:0.2193 3484:0.1743 3485:0.2692 3486:0.086 3487:0.0328 3488:0.0147 3489:0.0084 3490:0.0039 3491:0.0304 3492:0.3032 3493:0.2253 3494:0.0231 3495:0.0405 3496:0.0167 3497:0.087 3498:0.9209 3499:2.9987 3500:1.279 3501:0.377 3502:0.3273 3503:0.056 3504:0.0874 3505:0.3593 3506:1.7038 3507:14.6317 3508:174.9049 3509:321.3387 3510:69.957 3511:1.7133 3512:0.7233 3513:0.3649 3514:0.2518 3515:0.0538 3516:0.1891 3517:0.0867 3518:0.0163 3519:0.0305 3520:0.0585 3521:0.0544 3522:0.0402 3523:0.0092 3524:0.0267 3525:0.0392 3526:0.0205 3527:0.1681 3528:1.5145 3529:2.0781 3530:0.254 3531:0.202 3532:0.1647 3533:0.1154 3534:0.0997 3535:0.1973 3536:0.1029 3537:0.2182 3538:0.1496 3539:0.0373 3540:0.1131 3541:0.0867 3542:0.0081 3543:0.0046 3544:0.0043 3545:0.0032 3546:0.0019 3547:0.0013 3548:0.0009 3549:0.0012 3550:0.0069 3551:0.0382 3552:0.1245 3553:0.1775 3554:0.1414 3555:0.1196 3556:0.1585 3557:0.0651 3558:0.0181 3559:0.0142 3560:0.0339 3561:0.0821 3562:0.1001 3563:0.21 3564:0.1035 3565:0.0663 3566:0.0748 3567:0.0527 3568:0.084 3569:0.0628 3570:0.0839 3571:0.1174 3572:0.1002 3573:0.0291 3574:0.0116 3575:0.0216 3576:0.0317 3577:0.2843 3578:0.5459 3579:0.096 3580:0.0036 3581:0.0011 3582:0.0006 3583:0.0004 3584:0.0001 3585:0 3586:0 3587:0 3588:0 3589:0 3590:0 3591:0 3592:0 3593:0 3594:0 3595:0 3596:0 3597:0 3598:0 3599:0 3600:0 3601:0 3602:0.0005 3603:0.0094 3604:0.0104 3605:2.7909 3606:28.6242 3607:25.0898 3608:2.1895 3609:0.1439 3610:0.0344 3611:0.0418 3612:0.1648 3613:0.2591 3614:0.0942 3615:0.0188 3616:0.0068 3617:0.0091 3618:0.005 3619:0.0134 3620:0.1 3621:0.1273 3622:0.0731 3623:0.0625 3624:0.0387 3625:0.0302 3626:0.1874 3627:0.9941 3628:0.5535 3629:0.5286 3630:0.6875 3631:0.077 3632:0.2592 3633:5.0873 3634:24.2831 3635:145.8147 3636:321.1111 3637:382.6369 3638:112.0767 3639:1.7823 3640:1.4352 3641:0.6673 3642:0.4146 3643:0.489 3644:0.4575 3645:0.0929 3646:0.0165 3647:0.0302 3648:0.0821 3649:0.0407 3650:0.0205 3651:0.043 3652:0.1524 3653:0.1001 3654:0.0224 3655:0.3559 3656:2.4969 3657:1.4685 3658:0.122 3659:0.156 3660:0.1491 3661:0.045 3662:0.0926 3663:0.0838 3664:0.1062 3665:0.2197 3666:0.102 3667:0.0731 3668:0.0841 3669:0.0683 3670:0.0124 3671:0.0073 3672:0.0074 3673:0.0106 3674:0.0052 3675:0.0009 3676:0.0009 3677:0.0005 3678:0.006 3679:0.0358 3680:0.0276 3681:0.0576 3682:0.1239 3683:0.4698 3684:0.3201 3685:0.0989 3686:0.0231 3687:0.0088 3688:0.0127 3689:0.0214 3690:0.067 3691:0.2075 3692:0.1892 3693:0.1638 3694:0.0953 3695:0.068 3696:0.0908 3697:0.083 3698:0.063 3699:0.2237 3700:0.1046 3701:0.0248 3702:0.0575 3703:0.0336 3704:0.0176 3705:0.4076 3706:0.8413 3707:0.1237 3708:0.0038 3709:0.0017 3710:0.0004 3711:0.0002 3712:0.0001 3713:0 3714:0 3715:0 3716:0 3717:0 3718:0 3719:0 3720:0 3721:0 3722:0 3723:0 3724:0 3725:0 3726:0 3727:0 3728:0 3729:0 3730:0.0002 3731:0.0043 3732:0.0046 3733:0.4076 3734:1.6563 3735:0.9632 3736:0.2799 3737:0.0937 3738:0.0134 3739:0.0069 3740:0.0065 3741:0.0133 3742:0.006 3743:0.0007 3744:0.0009 3745:0.0008 3746:0.0014 3747:0.051 3748:0.1139 3749:0.0969 3750:0.067 3751:0.0231 3752:0.0824 3753:0.0943 3754:0.2841 3755:0.9085 3756:0.3396 3757:0.4107 3758:0.5892 3759:0.276 3760:1.6927 3761:20.1318 3762:319.2074 3763:555.6292 3764:86.9674 3765:65.0116 3766:58.2264 3767:2.81 3768:0.5992 3769:0.9856 3770:0.7054 3771:0.6437 3772:0.1707 3773:0.071 3774:0.0256 3775:0.0066 3776:0.0254 3777:0.0368 3778:0.0754 3779:0.0565 3780:0.0787 3781:0.0836 3782:0.063 3783:0.3305 3784:2.3311 3785:2.3203 3786:0.8928 3787:0.2393 3788:0.1868 3789:0.0995 3790:0.2915 3791:0.1131 3792:0.168 3793:0.4105 3794:0.3217 3795:0.1363 3796:0.2551 3797:0.1615 3798:0.0312 3799:0.0098 3800:0.0038 3801:0.0047 3802:0.0054 3803:0.0027 3804:0.0009 3805:0.0008 3806:0.0079 3807:0.0708 3808:0.0547 3809:0.0734 3810:0.1896 3811:0.2244 3812:0.0828 3813:0.0269 3814:0.032 3815:0.029 3816:0.0841 3817:0.1272 3818:0.2261 3819:0.3222 3820:0.2532 3821:0.1453 3822:0.0543 3823:0.0882 3824:0.1166 3825:0.0872 3826:0.0725 3827:0.0385 3828:0.018 3829:0.0091 3830:0.0424 3831:0.069 3832:0.0391 3833:0.275 3834:0.3387 3835:0.0583 3836:0.0017 3837:0.0003 3838:0.0001 3839:0.0001 3840:0.0001 3841:0 3842:0 3843:0 3844:0 3845:0 3846:0 3847:0 3848:0 3849:0 3850:0 3851:0 3852:0 3853:0 3854:0 3855:0 3856:0 3857:0 3858:0.0004 3859:0.0055 3860:0.0058 3861:0.0328 3862:0.2262 3863:0.1187 3864:0.0635 3865:0.0402 3866:0.0082 3867:0.0068 3868:0.0015 3869:0.0007 3870:0.0013 3871:0.0002 3872:0.0001 3873:0.0002 3874:0.0027 3875:0.072 3876:0.0804 3877:0.0178 3878:0.0147 3879:0.049 3880:0.0293 3881:0.018 3882:0.3043 3883:1.9263 3884:1.6067 3885:0.6257 3886:0.5832 3887:0.155 3888:4.0576 3889:211.7378 3890:862.0732 3891:503.5862 3892:52.4042 3893:36.4692 3894:62.4732 3895:9.3496 3896:0.9283 3897:1.0449 3898:1.2577 3899:0.3498 3900:0.2316 3901:0.1949 3902:0.0843 3903:0.0086 3904:0.0139 3905:0.0909 3906:0.2012 3907:0.0745 3908:0.0041 3909:0.0472 3910:0.1912 3911:0.2393 3912:1.2636 3913:1.8938 3914:2.0812 3915:0.2878 3916:0.0953 3917:0.0765 3918:0.2522 3919:0.2325 3920:0.5494 3921:0.3584 3922:0.6751 3923:0.6971 3924:0.9633 3925:0.4015 3926:0.0673 3927:0.034 3928:0.0158 3929:0.0281 3930:0.012 3931:0.0033 3932:0.0016 3933:0.0007 3934:0.019 3935:0.2104 3936:0.1933 3937:0.0375 3938:0.0272 3939:0.0949 3940:0.0923 3941:0.0381 3942:0.0804 3943:0.0953 3944:0.1952 3945:0.1557 3946:0.1602 3947:0.2168 3948:0.1637 3949:0.0255 3950:0.0212 3951:0.0255 3952:0.0495 3953:0.0418 3954:0.0084 3955:0.0056 3956:0.0194 3957:0.0143 3958:0.0158 3959:0.0668 3960:0.0967 3961:0.5114 3962:0.4478 3963:0.0402 3964:0.0081 3965:0.0018 3966:0.0002 3967:0.0003 3968:0.0003 3969:0 3970:0 3971:0 3972:0 3973:0 3974:0 3975:0 3976:0 3977:0 3978:0 3979:0 3980:0 3981:0 3982:0 3983:0 3984:0 3985:0 3986:0.0002 3987:0.002 3988:0.0038 3989:0.0094 3990:0.1194 3991:0.2107 3992:0.0617 3993:0.0154 3994:0.0041 3995:0.0017 3996:0.0022 3997:0.0049 3998:0.003 3999:0.0002 4000:0 4001:0.0003 4002:0.0022 4003:0.0431 4004:0.0431 4005:0.006 4006:0.0158 4007:0.1025 4008:0.0712 4009:0.0252 4010:0.214 4011:0.8032 4012:1.0778 4013:0.7232 4014:1.1301 4015:0.2278 4016:4.9293 4017:257.754 4018:497.9162 4019:74.3877 4020:7.6376 4021:52.0174 4022:64.3981 4023:5.4962 4024:0.4662 4025:0.1838 4026:0.5942 4027:0.5088 4028:0.1588 4029:0.0863 4030:0.0244 4031:0.0019 4032:0.0214 4033:0.0802 4034:0.0536 4035:0.0142 4036:0.0079 4037:0.0443 4038:0.2132 4039:0.2769 4040:0.9196 4041:1.6084 4042:1.6316 4043:0.2489 4044:0.0946 4045:0.0215 4046:0.0655 4047:0.1976 4048:1.2885 4049:4.4057 4050:7.8035 4051:2.5764 4052:0.9276 4053:0.3096 4054:0.1471 4055:0.1168 4056:0.0371 4057:0.0396 4058:0.035 4059:0.0088 4060:0.0027 4061:0.0013 4062:0.0299 4063:0.2345 4064:0.1123 4065:0.0233 4066:0.0532 4067:0.0779 4068:0.0587 4069:0.032 4070:0.0183 4071:0.0218 4072:0.1122 4073:0.1397 4074:0.0764 4075:0.0616 4076:0.045 4077:0.0172 4078:0.0258 4079:0.029 4080:0.0403 4081:0.0563 4082:0.0722 4083:0.038 4084:0.011 4085:0.0112 4086:0.0171 4087:0.0932 4088:0.1302 4089:0.9503 4090:0.6957 4091:0.0367 4092:0.0145 4093:0.009 4094:0.0016 4095:0.0003 4096:0.0007 4097:0 4098:0 4099:0 4100:0 4101:0 4102:0 4103:0 4104:0 4105:0 4106:0 4107:0 4108:0 4109:0 4110:0 4111:0 4112:0 4113:0 4114:0.0001 4115:0.0045 4116:0.0164 4117:0.0138 4118:0.0331 4119:0.0586 4120:0.0888 4121:0.0343 4122:0.0038 4123:0.0023 4124:0.0046 4125:0.004 4126:0.0026 4127:0.0007 4128:0.0003 4129:0.0003 4130:0.0021 4131:0.0181 4132:0.0504 4133:0.0247 4134:0.0439 4135:0.057 4136:0.0441 4137:0.1494 4138:0.3805 4139:0.651 4140:0.878 4141:0.5332 4142:0.5938 4143:0.2486 4144:2.2115 4145:40.187 4146:58.8653 4147:11.1946 4148:0.9677 4149:28.2876 4150:57.9042 4151:6.5625 4152:0.5366 4153:0.4854 4154:0.5199 4155:0.2407 4156:0.0483 4157:0.058 4158:0.02 4159:0.0026 4160:0.0128 4161:0.0166 4162:0.0178 4163:0.0054 4164:0.0087 4165:0.0141 4166:0.2727 4167:0.5537 4168:0.6611 4169:2.065 4170:1.2419 4171:0.0579 4172:0.05 4173:0.0132 4174:0.0598 4175:0.9628 4176:44.7779 4177:362.2886 4178:472.7534 4179:91.8808 4180:3.2728 4181:3.389 4182:2.1865 4183:0.3944 4184:1.2074 4185:2.7324 4186:1.2242 4187:0.2181 4188:0.161 4189:0.1014 4190:0.0644 4191:0.4091 4192:0.5755 4193:0.061 4194:0.0284 4195:0.0653 4196:0.0813 4197:0.1198 4198:0.0436 4199:0.0524 4200:0.11 4201:0.0493 4202:0.0489 4203:0.1293 4204:0.0651 4205:0.0618 4206:0.0868 4207:0.0562 4208:0.0446 4209:0.0689 4210:0.2953 4211:0.2585 4212:0.0437 4213:0.0104 4214:0.0421 4215:0.0691 4216:0.1815 4217:1.0006 4218:0.4371 4219:0.0107 4220:0.008 4221:0.0058 4222:0.0015 4223:0.0002 4224:0.0004 4225:0 4226:0 4227:0 4228:0 4229:0 4230:0 4231:0 4232:0 4233:0 4234:0 4235:0 4236:0 4237:0 4238:0 4239:0 4240:0 4241:0 4242:0.0001 4243:0.0047 4244:0.01 4245:0.0111 4246:0.0124 4247:0.035 4248:0.0359 4249:0.0053 4250:0.0083 4251:0.005 4252:0.0028 4253:0.0022 4254:0.0016 4255:0.0002 4256:0.0001 4257:0.0001 4258:0.0036 4259:0.2021 4260:0.4228 4261:0.0874 4262:0.059 4263:0.0584 4264:0.0315 4265:0.1867 4266:0.3371 4267:0.8141 4268:0.5186 4269:0.3747 4270:0.3531 4271:0.1623 4272:0.2695 4273:0.6078 4274:0.3746 4275:0.1572 4276:0.1177 4277:18.7136 4278:47.0186 4279:7.2313 4280:0.3541 4281:0.576 4282:0.3909 4283:0.0215 4284:0.0397 4285:0.0828 4286:0.0451 4287:0.018 4288:0.0459 4289:0.0425 4290:0.0274 4291:0.0082 4292:0.0192 4293:0.0142 4294:0.1293 4295:0.3969 4296:2.7898 4297:8.5232 4298:3.3848 4299:0.2015 4300:0.2794 4301:0.0849 4302:1.3988 4303:25.7906 4304:337.384 4305:805.5694 4306:865.1545 4307:338.2016 4308:15.1388 4309:8.7515 4310:12.0713 4311:4.3441 4312:5.6408 4313:4.4434 4314:2.0442 4315:0.6554 4316:0.4341 4317:0.166 4318:0.0563 4319:0.6384 4320:0.99 4321:0.0956 4322:0.0114 4323:0.0418 4324:0.08 4325:0.1413 4326:0.0722 4327:0.0628 4328:0.091 4329:0.0254 4330:0.0575 4331:0.0452 4332:0.1062 4333:0.071 4334:0.0786 4335:0.0762 4336:0.033 4337:0.0159 4338:0.0753 4339:0.1121 4340:0.0427 4341:0.0072 4342:0.0176 4343:0.0193 4344:0.3139 4345:1.2693 4346:0.3821 4347:0.0064 4348:0.0058 4349:0.0039 4350:0.001 4351:0.0005 4352:0.0011 4353:0 4354:0 4355:0 4356:0 4357:0 4358:0 4359:0 4360:0 4361:0 4362:0 4363:0 4364:0 4365:0 4366:0 4367:0 4368:0 4369:0 4370:0.0011 4371:0.0132 4372:0.0493 4373:0.0213 4374:0.0369 4375:0.0786 4376:0.0349 4377:0.0199 4378:0.0277 4379:0.0059 4380:0.0009 4381:0.0036 4382:0.0036 4383:0.0003 4384:0.0001 4385:0.0002 4386:0.0083 4387:0.7846 4388:1.4784 4389:0.1923 4390:0.0563 4391:0.0835 4392:0.0604 4393:0.2337 4394:0.3651 4395:0.2267 4396:0.1711 4397:0.1267 4398:0.6307 4399:0.8214 4400:0.1785 4401:0.3287 4402:0.4437 4403:0.0528 4404:0.1037 4405:17.252 4406:63.8335 4407:17.551 4408:2.2578 4409:1.3095 4410:0.6142 4411:0.0465 4412:0.1454 4413:0.1778 4414:0.0278 4415:0.0128 4416:0.0566 4417:0.0698 4418:0.0357 4419:0.0184 4420:0.018 4421:0.0195 4422:0.0921 4423:0.3601 4424:2.0441 4425:9.8232 4426:3.3742 4427:0.2797 4428:0.6441 4429:0.3724 4430:4.7825 4431:171.4328 4432:650.237 4433:233.3395 4434:252.826 4435:440.015 4436:55.0011 4437:16.3415 4438:24.7887 4439:11.7191 4440:6.1278 4441:2.9338 4442:1.9789 4443:0.3666 4444:0.1241 4445:0.0219 4446:0.043 4447:0.5573 4448:1.0319 4449:0.1286 4450:0.0088 4451:0.0286 4452:0.0879 4453:0.0633 4454:0.0334 4455:0.0379 4456:0.0434 4457:0.018 4458:0.0396 4459:0.0445 4460:0.0839 4461:0.0354 4462:0.096 4463:0.0877 4464:0.0342 4465:0.0279 4466:0.0452 4467:0.0217 4468:0.021 4469:0.0068 4470:0.0082 4471:0.0343 4472:0.7958 4473:1.3469 4474:0.2634 4475:0.0675 4476:0.0131 4477:0.0043 4478:0.0009 4479:0.0005 4480:0.0006 4481:0 4482:0 4483:0 4484:0 4485:0 4486:0 4487:0 4488:0 4489:0 4490:0 4491:0 4492:0 4493:0 4494:0 4495:0 4496:0 4497:0 4498:0.0015 4499:0.0499 4500:0.123 4501:0.081 4502:0.113 4503:0.047 4504:0.0562 4505:0.0507 4506:0.0352 4507:0.0055 4508:0.0025 4509:0.0012 4510:0.0014 4511:0.0004 4512:0.0003 4513:0.0009 4514:0.0097 4515:0.7154 4516:2.075 4517:0.5185 4518:0.1488 4519:0.1224 4520:0.1003 4521:0.2589 4522:1.1701 4523:1.7867 4524:0.4902 4525:0.1371 4526:0.3993 4527:1.406 4528:0.518 4529:0.3159 4530:0.7357 4531:0.2721 4532:0.0459 4533:17.1683 4534:77.4403 4535:24.2999 4536:3.1821 4537:0.7901 4538:0.2781 4539:0.0506 4540:0.2345 4541:0.1401 4542:0.0303 4543:0.0364 4544:0.1345 4545:0.1013 4546:0.0342 4547:0.0273 4548:0.0417 4549:0.0251 4550:0.0525 4551:0.2201 4552:2.412 4553:5.9725 4554:1.4571 4555:0.1656 4556:0.141 4557:1.5451 4558:73.7242 4559:325.1571 4560:246.5621 4561:40.1046 4562:116.0205 4563:451.8546 4564:125.103 4565:4.0179 4566:3.5979 4567:1.7754 4568:1.3016 4569:1.9822 4570:0.9286 4571:0.0693 4572:0.0221 4573:0.0107 4574:0.0186 4575:0.2578 4576:0.6641 4577:0.1143 4578:0.0112 4579:0.033 4580:0.0351 4581:0.0215 4582:0.0338 4583:0.0451 4584:0.0164 4585:0.0354 4586:0.0878 4587:0.1473 4588:0.1043 4589:0.0326 4590:0.0639 4591:0.1007 4592:0.0796 4593:0.0742 4594:0.0429 4595:0.0095 4596:0.0332 4597:0.0454 4598:0.091 4599:0.1233 4600:1.3546 4601:1.7646 4602:0.2558 4603:0.1253 4604:0.0199 4605:0.0026 4606:0.0003 4607:0.0003 4608:0.0001 4609:0 4610:0 4611:0 4612:0 4613:0 4614:0 4615:0 4616:0 4617:0 4618:0 4619:0 4620:0 4621:0 4622:0 4623:0 4624:0 4625:0 4626:0.0029 4627:0.1573 4628:0.3666 4629:0.1178 4630:0.1834 4631:0.1092 4632:0.0375 4633:0.0658 4634:0.0261 4635:0.0065 4636:0.0033 4637:0.001 4638:0.0002 4639:0.0002 4640:0.0013 4641:0.0012 4642:0.0061 4643:0.1632 4644:1.3587 4645:0.7212 4646:0.1308 4647:0.0539 4648:0.0547 4649:0.0866 4650:1.1032 4651:4.9345 4652:1.493 4653:0.2413 4654:1.3646 4655:5.4569 4656:1.7612 4657:0.3432 4658:0.2703 4659:0.1134 4660:0.1204 4661:12.3818 4662:60.9106 4663:19.2775 4664:1.3457 4665:0.6724 4666:0.2382 4667:0.0302 4668:0.0717 4669:0.1287 4670:0.0613 4671:0.1996 4672:1.1069 4673:0.6288 4674:0.0631 4675:0.0241 4676:0.0396 4677:0.0227 4678:0.0444 4679:0.1569 4680:2.8749 4681:3.2439 4682:0.2457 4683:0.1929 4684:0.8516 4685:5.3757 4686:131.9983 4687:210.7867 4688:29.5623 4689:0.9675 4690:51.9445 4691:375.2014 4692:173.7474 4693:14.9343 4694:7.1623 4695:3.6376 4696:4.1465 4697:0.7859 4698:0.6054 4699:0.4088 4700:0.086 4701:0.0384 4702:0.0143 4703:0.083 4704:0.5032 4705:0.2511 4706:0.0398 4707:0.0695 4708:0.1057 4709:0.106 4710:0.1535 4711:0.0611 4712:0.049 4713:0.0869 4714:0.0762 4715:0.0459 4716:0.0739 4717:0.0841 4718:0.0478 4719:0.1525 4720:1.7275 4721:2.017 4722:1.9215 4723:3.7527 4724:3.872 4725:4.342 4726:9.8413 4727:6.0037 4728:3.3175 4729:2.1003 4730:0.0962 4731:0.0916 4732:0.0588 4733:0.0063 4734:0.0016 4735:0.0025 4736:0.0007 4737:0 4738:0 4739:0 4740:0 4741:0 4742:0 4743:0 4744:0 4745:0 4746:0 4747:0 4748:0 4749:0 4750:0 4751:0 4752:0 4753:0 4754:0.0124 4755:0.1957 4756:0.4327 4757:0.2534 4758:0.163 4759:0.1328 4760:0.1103 4761:0.0607 4762:0.0155 4763:0.0108 4764:0.0084 4765:0.0071 4766:0.0053 4767:0.0026 4768:0.0021 4769:0.0007 4770:0.0037 4771:0.1319 4772:1.8089 4773:1.3794 4774:0.0744 4775:0.0173 4776:0.0185 4777:0.0601 4778:3.4537 4779:10.5784 4780:2.3559 4781:0.1213 4782:6.6157 4783:21.4806 4784:5.8947 4785:0.2287 4786:0.1506 4787:0.1036 4788:0.1693 4789:8.6095 4790:48.0543 4791:18.7705 4792:0.7635 4793:0.324 4794:0.3077 4795:0.0946 4796:0.0392 4797:0.0639 4798:0.0205 4799:0.2216 4800:0.8388 4801:0.7658 4802:0.1761 4803:0.0185 4804:0.0039 4805:0.0037 4806:0.0397 4807:0.6828 4808:10.1868 4809:12.159 4810:1.7895 4811:1.646 4812:10.7009 4813:11.7394 4814:49.9305 4815:28.3657 4816:5.2609 4817:0.6445 4818:19.9893 4819:529.2034 4820:706.1247 4821:101.7961 4822:10.271 4823:21.4893 4824:13.8237 4825:0.9673 4826:1.247 4827:0.7618 4828:0.125 4829:0.0246 4830:0.0118 4831:0.0104 4832:0.702 4833:1.0663 4834:0.1122 4835:0.0722 4836:0.0734 4837:0.1165 4838:0.5753 4839:0.3643 4840:0.0464 4841:0.0569 4842:0.082 4843:0.1307 4844:0.537 4845:0.4373 4846:3.3018 4847:13.4317 4848:42.8156 4849:77.6498 4850:74.1677 4851:65.5645 4852:44.8637 4853:33.9016 4854:35.8244 4855:31.3069 4856:16.3165 4857:2.1558 4858:0.1691 4859:0.1119 4860:0.0347 4861:0.0145 4862:0.0109 4863:0.0073 4864:0.0041 4865:0 4866:0 4867:0 4868:0 4869:0 4870:0 4871:0 4872:0 4873:0 4874:0 4875:0 4876:0 4877:0 4878:0 4879:0 4880:0 4881:0 4882:0.0506 4883:0.4342 4884:0.6313 4885:0.5768 4886:0.4122 4887:0.3019 4888:0.1243 4889:0.0396 4890:0.0898 4891:0.0598 4892:0.0069 4893:0.006 4894:0.0038 4895:0.0033 4896:0.0021 4897:0.0016 4898:0.0058 4899:0.0846 4900:1.7253 4901:1.8544 4902:0.1561 4903:0.1195 4904:0.0293 4905:0.0516 4906:3.9226 4907:10.6402 4908:1.8367 4909:0.211 4910:10.4991 4911:26.6128 4912:4.016 4913:0.2421 4914:0.1669 4915:0.0893 4916:0.1293 4917:2.5033 4918:15.9908 4919:7.4861 4920:0.2167 4921:0.1155 4922:0.0942 4923:0.0363 4924:0.0038 4925:0.0057 4926:0.0041 4927:0.1148 4928:0.7183 4929:3.8314 4930:3.7656 4931:1.4093 4932:0.3852 4933:0.5396 4934:0.2207 4935:0.5563 4936:13.3037 4937:17.6565 4938:1.2171 4939:3.3247 4940:20.7512 4941:12.4308 4942:20.8292 4943:9.602 4944:0.6169 4945:0.0785 4946:5.0486 4947:211.5793 4948:312.3134 4949:34.5976 4950:4.1776 4951:8.7856 4952:6.9133 4953:0.7468 4954:0.1251 4955:0.0964 4956:0.037 4957:0.0106 4958:0.0083 4959:0.0169 4960:1.3945 4961:7.3773 4962:10.0664 4963:5.9414 4964:1.2649 4965:0.1746 4966:0.7836 4967:0.6728 4968:0.1864 4969:0.0903 4970:0.4516 4971:4.0917 4972:19.103 4973:37.1961 4974:46.7382 4975:71.2796 4976:59.707 4977:30.8699 4978:19.3231 4979:10.0543 4980:4.7328 4981:2.0317 4982:1.3248 4983:4.5965 4984:4.9398 4985:0.3636 4986:0.1412 4987:0.0896 4988:0.0187 4989:0.0052 4990:0.0039 4991:0.0071 4992:0.0044 4993:0 4994:0 4995:0 4996:0 4997:0 4998:0 4999:0 5000:0 5001:0 5002:0 5003:0 5004:0 5005:0 5006:0 5007:0 5008:0 5009:0.0002 5010:0.139 5011:0.5008 5012:0.379 5013:0.7117 5014:0.693 5015:1.3019 5016:1.0039 5017:0.2103 5018:0.3517 5019:0.18 5020:0.0749 5021:0.0503 5022:0.0201 5023:0.0063 5024:0.0051 5025:0.0046 5026:0.0073 5027:0.0741 5028:3.199 5029:8.2128 5030:2.1646 5031:0.3633 5032:0.1424 5033:0.0473 5034:4.8474 5035:12.2797 5036:2.097 5037:1.3188 5038:21.691 5039:41.1306 5040:4.3108 5041:0.5596 5042:0.3009 5043:0.1004 5044:0.2267 5045:1.107 5046:5.5179 5047:2.4723 5048:0.1012 5049:0.0398 5050:0.0127 5051:0.003 5052:0.0013 5053:0.0028 5054:0.0034 5055:0.0502 5056:0.3244 5057:4.5302 5058:13.9659 5059:16.3018 5060:12.1867 5061:10.4208 5062:3.901 5063:2.1018 5064:16.7935 5065:17.5628 5066:2.4279 5067:8.4594 5068:23.741 5069:6.3348 5070:4.7814 5071:1.5137 5072:0.1599 5073:0.1233 5074:1.0959 5075:34.8126 5076:44.1875 5077:3.4505 5078:0.8389 5079:0.643 5080:0.4827 5081:0.0757 5082:0.0265 5083:0.0098 5084:0.0073 5085:0.007 5086:0.0021 5087:0.0066 5088:0.497 5089:8.2207 5090:26.9775 5091:48.5943 5092:49.4491 5093:38.3652 5094:34.6829 5095:18.9557 5096:2.4514 5097:8.8568 5098:42.4408 5099:81.509 5100:95.7602 5101:78.994 5102:43.4106 5103:13.3444 5104:4.5702 5105:0.4633 5106:0.4408 5107:0.1884 5108:0.0344 5109:0.1688 5110:0.1557 5111:0.3958 5112:0.3095 5113:0.0479 5114:0.0154 5115:0.012 5116:0.0081 5117:0.0033 5118:0.0013 5119:0.002 5120:0.0013 5121:0 5122:0 5123:0 5124:0 5125:0 5126:0 5127:0 5128:0 5129:0 5130:0 5131:0 5132:0 5133:0 5134:0 5135:0 5136:0 5137:0.0015 5138:0.2728 5139:0.7281 5140:0.9909 5141:1.8827 5142:2.1644 5143:3.7325 5144:1.6008 5145:0.787 5146:0.3445 5147:0.2162 5148:0.108 5149:0.0896 5150:0.0837 5151:0.0536 5152:0.0289 5153:0.0121 5154:0.0068 5155:0.0526 5156:2.6684 5157:29.1211 5158:32.6402 5159:8.3139 5160:1.015 5161:0.2333 5162:4.8254 5163:8.7123 5164:1.3937 5165:19.9806 5166:198.0779 5167:195.2037 5168:14.4864 5169:1.2882 5170:0.9606 5171:0.2741 5172:0.3896 5173:0.4782 5174:1.7093 5175:0.6947 5176:0.0169 5177:0.0046 5178:0.0113 5179:0.0106 5180:0.0123 5181:0.0062 5182:0.0021 5183:0.0083 5184:0.0429 5185:0.1743 5186:0.7749 5187:4.7613 5188:5.14 5189:10.8189 5190:21.6797 5191:7.5095 5192:7.9617 5193:5.9873 5194:0.9578 5195:7.5745 5196:14.3125 5197:2.2212 5198:1.4021 5199:0.4131 5200:0.2318 5201:0.1409 5202:0.3241 5203:2.4211 5204:2.8466 5205:0.2725 5206:0.1621 5207:0.1501 5208:0.0623 5209:0.017 5210:0.0063 5211:0.003 5212:0.0012 5213:0.0002 5214:0.0015 5215:0.0038 5216:0.025 5217:0.2656 5218:0.6632 5219:5.9317 5220:13.9233 5221:17.952 5222:21.9251 5223:64.3459 5224:80.9085 5225:117.1579 5226:81.813 5227:22.2684 5228:5.2238 5229:1.1123 5230:0.5027 5231:0.4898 5232:0.3819 5233:0.1056 5234:0.0632 5235:0.0555 5236:0.0143 5237:0.0192 5238:0.0247 5239:0.0372 5240:0.0275 5241:0.0474 5242:0.1916 5243:0.0951 5244:0.0096 5245:0.0027 5246:0.0012 5247:0.0004 5248:0 5249:0 5250:0 5251:0 5252:0 5253:0 5254:0 5255:0 5256:0 5257:0 5258:0 5259:0 5260:0 5261:0 5262:0 5263:0 5264:0 5265:0.0035 5266:0.2397 5267:0.4532 5268:0.9664 5269:2.4923 5270:1.4967 5271:2.0125 5272:1.3707 5273:0.4013 5274:0.1683 5275:0.3949 5276:0.2844 5277:0.071 5278:0.0633 5279:0.1111 5280:0.0608 5281:0.0206 5282:0.0051 5283:0.051 5284:0.9307 5285:12.9961 5286:57.2918 5287:56.3044 5288:12.9604 5289:1.4206 5290:4.2542 5291:6.2304 5292:2.7114 5293:50.2998 5294:444.5638 5295:268.7254 5296:12.8049 5297:2.4213 5298:1.8575 5299:0.9143 5300:1.2493 5301:0.4101 5302:0.2869 5303:0.2192 5304:0.1169 5305:0.0279 5306:0.0274 5307:0.0449 5308:0.0358 5309:0.0161 5310:0.0068 5311:0.0116 5312:0.0326 5313:0.013 5314:0.0356 5315:0.1492 5316:0.241 5317:1.2467 5318:19.4339 5319:23.7543 5320:17.4612 5321:10.6643 5322:0.9014 5323:2.1925 5324:3.4514 5325:1.2172 5326:1.1614 5327:0.2385 5328:0.1592 5329:0.1732 5330:0.2187 5331:0.2035 5332:0.0786 5333:0.0202 5334:0.0156 5335:0.0346 5336:0.0147 5337:0.0032 5338:0.0031 5339:0.0005 5340:0.0002 5341:0.0001 5342:0.0017 5343:0.0046 5344:0.0075 5345:0.0123 5346:0.0365 5347:0.0894 5348:0.0989 5349:0.1745 5350:2.2483 5351:17.9049 5352:56.7876 5353:55.8645 5354:14.4509 5355:0.774 5356:0.1301 5357:0.1398 5358:0.0844 5359:0.0298 5360:0.0615 5361:0.2016 5362:0.1115 5363:0.081 5364:0.0429 5365:0.008 5366:0.0234 5367:0.0159 5368:0.0296 5369:0.108 5370:0.3054 5371:0.0815 5372:0.0072 5373:0.0023 5374:0.0013 5375:0.0002 5376:0 5377:0 5378:0 5379:0 5380:0 5381:0 5382:0 5383:0 5384:0 5385:0 5386:0 5387:0 5388:0 5389:0 5390:0 5391:0 5392:0 5393:0.0018 5394:0.0359 5395:0.092 5396:0.402 5397:0.519 5398:0.3183 5399:0.1903 5400:0.4358 5401:0.2118 5402:0.0249 5403:0.0642 5404:0.051 5405:0.0099 5406:0.0134 5407:0.0155 5408:0.0018 5409:0.0007 5410:0.0035 5411:0.0671 5412:0.1601 5413:0.305 5414:5.8484 5415:37.4902 5416:66.1992 5417:19.7018 5418:10.8513 5419:11.5169 5420:4.8065 5421:21.411 5422:179.8206 5423:108.2714 5424:3.3734 5425:1.439 5426:1.0159 5427:0.4034 5428:1.1434 5429:0.5141 5430:0.0514 5431:0.025 5432:0.0365 5433:0.0095 5434:0.0049 5435:0.0045 5436:0.0033 5437:0.0015 5438:0.0013 5439:0.0229 5440:0.0447 5441:0.0139 5442:0.0217 5443:0.0177 5444:0.0114 5445:0.0868 5446:11.3059 5447:39.8704 5448:23.943 5449:6.6392 5450:0.7575 5451:0.4651 5452:0.3888 5453:0.1715 5454:0.6947 5455:0.3265 5456:0.0829 5457:0.0613 5458:0.0557 5459:0.1687 5460:0.1175 5461:0.0341 5462:0.0236 5463:0.0335 5464:0.0236 5465:0.0015 5466:0.0004 5467:0.0001 5468:0.0001 5469:0.0001 5470:0.0035 5471:0.0182 5472:0.0211 5473:0.0158 5474:0.0129 5475:0.0139 5476:0.0397 5477:0.0273 5478:0.0868 5479:0.2611 5480:0.712 5481:0.5408 5482:0.0977 5483:0.1211 5484:0.048 5485:0.0099 5486:0.0167 5487:0.0205 5488:0.0422 5489:0.1703 5490:0.1106 5491:0.1025 5492:0.0425 5493:0.0032 5494:0.0063 5495:0.024 5496:0.0262 5497:0.0705 5498:0.1205 5499:0.0717 5500:0.0036 5501:0.0012 5502:0.0004 5503:0.0001 5504:0 5505:0 5506:0 5507:0 5508:0 5509:0 5510:0 5511:0 5512:0 5513:0 5514:0 5515:0 5516:0 5517:0 5518:0 5519:0 5520:0 5521:0.0001 5522:0.0012 5523:0.0442 5524:0.109 5525:0.0958 5526:0.0674 5527:0.0331 5528:0.0368 5529:0.0563 5530:0.0398 5531:0.0271 5532:0.0252 5533:0.0064 5534:0.0023 5535:0.002 5536:0.0015 5537:0.0008 5538:0.0017 5539:0.0621 5540:0.1805 5541:0.0739 5542:0.0765 5543:4.0852 5544:54.6371 5545:70.1612 5546:15.7018 5547:11.0555 5548:5.7016 5549:4.3863 5550:18.347 5551:9.1359 5552:0.5447 5553:0.1416 5554:0.1334 5555:0.3243 5556:0.4562 5557:0.1981 5558:0.1447 5559:0.0375 5560:0.0127 5561:0.0079 5562:0.0028 5563:0.0019 5564:0.001 5565:0.0005 5566:0.0003 5567:0.0127 5568:0.0424 5569:0.0177 5570:0.012 5571:0.0147 5572:0.02 5573:0.0445 5574:3.1829 5575:39.8067 5576:55.0724 5577:11.4727 5578:1.4174 5579:0.2291 5580:0.0984 5581:0.0608 5582:0.1774 5583:0.2526 5584:0.1494 5585:0.0813 5586:0.1336 5587:0.1226 5588:0.1048 5589:0.0148 5590:0.0037 5591:0.0041 5592:0.0051 5593:0.0005 5594:0.0002 5595:0.0001 5596:0.0001 5597:0.0001 5598:0.0024 5599:0.0121 5600:0.0109 5601:0.0146 5602:0.0189 5603:0.0096 5604:0.0343 5605:0.0428 5606:0.0632 5607:0.0549 5608:0.0815 5609:0.0639 5610:0.0239 5611:0.0245 5612:0.0142 5613:0.0096 5614:0.0356 5615:0.03 5616:0.0139 5617:0.0328 5618:0.0241 5619:0.018 5620:0.024 5621:0.0042 5622:0.0053 5623:0.0156 5624:0.0175 5625:0.0836 5626:0.1675 5627:0.0568 5628:0.0113 5629:0.0011 5630:0.0003 5631:0.0004 5632:0.0002 5633:0 5634:0 5635:0 5636:0 5637:0 5638:0 5639:0 5640:0 5641:0 5642:0 5643:0 5644:0 5645:0 5646:0 5647:0 5648:0 5649:0 5650:0.0018 5651:0.0408 5652:0.1472 5653:0.1062 5654:0.0757 5655:0.0449 5656:0.0179 5657:0.0249 5658:0.0199 5659:0.0055 5660:0.0064 5661:0.0046 5662:0.0066 5663:0.0024 5664:0.0008 5665:0.0008 5666:0.0006 5667:0.0057 5668:0.1005 5669:0.1108 5670:0.0481 5671:0.2547 5672:7.0696 5673:79.1128 5674:166.9383 5675:53.1656 5676:4.783 5677:1.9767 5678:2.6457 5679:0.8092 5680:0.0774 5681:0.0551 5682:0.2343 5683:0.4713 5684:0.1583 5685:0.1665 5686:0.2219 5687:0.0353 5688:0.0023 5689:0.0027 5690:0.0007 5691:0.0006 5692:0.0004 5693:0.0003 5694:0.0002 5695:0.0031 5696:0.0243 5697:0.0321 5698:0.0198 5699:0.0224 5700:0.0331 5701:0.0673 5702:0.6206 5703:32.7993 5704:74.4341 5705:14.984 5706:0.8677 5707:0.2177 5708:0.2064 5709:0.0606 5710:0.0756 5711:0.0962 5712:0.1204 5713:0.1032 5714:0.044 5715:0.0271 5716:0.0624 5717:0.0438 5718:0.0062 5719:0.011 5720:0.0049 5721:0.0005 5722:0.0001 5723:0.0002 5724:0.0001 5725:0.0001 5726:0.0013 5727:0.0085 5728:0.0147 5729:0.0256 5730:0.0201 5731:0.0255 5732:0.0467 5733:0.0835 5734:0.0813 5735:0.0484 5736:0.0309 5737:0.0263 5738:0.0244 5739:0.0099 5740:0.0168 5741:0.033 5742:0.0461 5743:0.0487 5744:0.0119 5745:0.0094 5746:0.0132 5747:0.0151 5748:0.0149 5749:0.0158 5750:0.0281 5751:0.041 5752:0.0171 5753:0.0349 5754:0.0503 5755:0.0278 5756:0.0067 5757:0.0003 5758:0.0003 5759:0.0002 5760:0.0001 5761:0 5762:0 5763:0 5764:0 5765:0 5766:0 5767:0 5768:0 5769:0 5770:0 5771:0 5772:0 5773:0 5774:0 5775:0 5776:0 5777:0 5778:0.0044 5779:0.2375 5780:1.1656 5781:0.6338 5782:0.1818 5783:0.2054 5784:0.1007 5785:0.0178 5786:0.0281 5787:0.0376 5788:0.0443 5789:0.0364 5790:0.0278 5791:0.0051 5792:0.001 5793:0.0027 5794:0.0018 5795:0.022 5796:0.295 5797:0.24 5798:0.0488 5799:0.04 5800:0.558 5801:57.0696 5802:205.3726 5803:75.086 5804:9.23 5805:2.5014 5806:1.5881 5807:0.3193 5808:0.0949 5809:0.0289 5810:0.0989 5811:0.4142 5812:0.2295 5813:0.0429 5814:0.0397 5815:0.0087 5816:0.0019 5817:0.0027 5818:0.0011 5819:0.0003 5820:0.0006 5821:0.0003 5822:0.0001 5823:0.0013 5824:0.0142 5825:0.031 5826:0.0236 5827:0.0173 5828:0.017 5829:0.0261 5830:0.1337 5831:3.7172 5832:10.4268 5833:4.5237 5834:1.5715 5835:0.166 5836:0.1683 5837:0.1059 5838:0.0882 5839:0.0342 5840:0.0704 5841:0.0587 5842:0.0254 5843:0.0408 5844:0.0844 5845:0.0324 5846:0.0075 5847:0.006 5848:0.0014 5849:0.0005 5850:0.0002 5851:0.0001 5852:0.0001 5853:0.0001 5854:0.0011 5855:0.0209 5856:0.0917 5857:0.128 5858:0.0541 5859:0.0189 5860:0.068 5861:0.1024 5862:0.0544 5863:0.0273 5864:0.0545 5865:0.025 5866:0.0404 5867:0.0241 5868:0.0166 5869:0.0288 5870:0.036 5871:0.0243 5872:0.0421 5873:0.0557 5874:0.0924 5875:0.1185 5876:0.0453 5877:0.0259 5878:0.0376 5879:0.0312 5880:0.0187 5881:0.0704 5882:0.0653 5883:0.0152 5884:0.0037 5885:0.0003 5886:0.0003 5887:0.0002 5888:0 5889:0 5890:0 5891:0 5892:0 5893:0 5894:0 5895:0 5896:0 5897:0 5898:0 5899:0 5900:0 5901:0 5902:0 5903:0 5904:0 5905:0 5906:0.0035 5907:0.169 5908:0.7273 5909:0.5288 5910:0.1546 5911:0.213 5912:0.0874 5913:0.0161 5914:0.0133 5915:0.023 5916:0.0364 5917:0.0406 5918:0.0157 5919:0.0022 5920:0.0006 5921:0.001 5922:0.0027 5923:0.0775 5924:0.4104 5925:0.243 5926:0.066 5927:0.0576 5928:0.0804 5929:4.845 5930:21.2674 5931:10.1748 5932:2.8808 5933:1.5226 5934:0.6657 5935:0.1562 5936:0.0976 5937:0.0916 5938:0.0444 5939:0.0549 5940:0.0689 5941:0.0572 5942:0.0817 5943:0.0168 5944:0.001 5945:0.0008 5946:0.0007 5947:0.0006 5948:0.0004 5949:0.0003 5950:0.0001 5951:0.0005 5952:0.0031 5953:0.0063 5954:0.0188 5955:0.0224 5956:0.0205 5957:0.044 5958:0.058 5959:0.2384 5960:1.9494 5961:4.6589 5962:2.8554 5963:0.3165 5964:0.1484 5965:0.0458 5966:0.1023 5967:0.0492 5968:0.0122 5969:0.0144 5970:0.0174 5971:0.0174 5972:0.0507 5973:0.0284 5974:0.009 5975:0.0059 5976:0.0013 5977:0.0001 5978:0.0002 5979:0.0001 5980:0 5981:0.0001 5982:0.0015 5983:0.0135 5984:0.0458 5985:0.0754 5986:0.0615 5987:0.0649 5988:0.0856 5989:0.0849 5990:0.0163 5991:0.0264 5992:0.0623 5993:0.0316 5994:0.0501 5995:0.078 5996:0.0422 5997:0.0347 5998:0.0396 5999:0.0679 6000:0.0909 6001:0.1354 6002:0.0565 6003:0.0348 6004:0.0142 6005:0.004 6006:0.0149 6007:0.0141 6008:0.0371 6009:0.1734 6010:0.0911 6011:0.0214 6012:0.0038 6013:0.0003 6014:0.0002 6015:0.0002 6016:0.0001 6017:0 6018:0 6019:0 6020:0 6021:0 6022:0 6023:0 6024:0 6025:0 6026:0 6027:0 6028:0 6029:0 6030:0 6031:0 6032:0 6033:0 6034:0.0008 6035:0.0107 6036:0.0144 6037:0.0155 6038:0.0131 6039:0.0128 6040:0.0135 6041:0.0051 6042:0.0045 6043:0.0053 6044:0.0021 6045:0.0025 6046:0.0013 6047:0.0005 6048:0.0002 6049:0.0003 6050:0.0018 6051:0.028 6052:0.0888 6053:0.0626 6054:0.0458 6055:0.0565 6056:0.0509 6057:0.2444 6058:3.1168 6059:7.8685 6060:4.9918 6061:0.6092 6062:0.305 6063:0.1047 6064:0.1133 6065:0.0523 6066:0.0156 6067:0.0137 6068:0.0209 6069:0.0467 6070:0.021 6071:0.0027 6072:0.0005 6073:0.0004 6074:0.0003 6075:0.0003 6076:0.0005 6077:0.0004 6078:0.0001 6079:0.0011 6080:0.0053 6081:0.0176 6082:0.0742 6083:0.0558 6084:0.01 6085:0.0234 6086:0.0585 6087:0.2549 6088:1.6058 6089:5.4405 6090:6.3843 6091:1.2813 6092:0.6031 6093:0.0712 6094:0.0366 6095:0.0196 6096:0.013 6097:0.0157 6098:0.0066 6099:0.0056 6100:0.0099 6101:0.0078 6102:0.002 6103:0.0059 6104:0.0028 6105:0.0002 6106:0.0002 6107:0.0002 6108:0.0001 6109:0 6110:0.0007 6111:0.0224 6112:0.0639 6113:0.0708 6114:0.0496 6115:0.032 6116:0.017 6117:0.0252 6118:0.0402 6119:0.0486 6120:0.06 6121:0.084 6122:0.049 6123:0.1034 6124:0.1595 6125:0.072 6126:0.0633 6127:0.0623 6128:0.0263 6129:0.0229 6130:0.0091 6131:0.0058 6132:0.004 6133:0.0044 6134:0.0163 6135:0.0104 6136:0.0427 6137:0.2282 6138:0.0927 6139:0.0054 6140:0.0033 6141:0.0014 6142:0.0005 6143:0.0002 6144:0.0001 6145:0 6146:0 6147:0 6148:0 6149:0 6150:0 6151:0 6152:0 6153:0 6154:0 6155:0 6156:0 6157:0 6158:0 6159:0 6160:0 6161:0 6162:0.0003 6163:0.0024 6164:0.0046 6165:0.0048 6166:0.0057 6167:0.0096 6168:0.0068 6169:0.0014 6170:0.0024 6171:0.0037 6172:0.0018 6173:0.0008 6174:0.0003 6175:0.0002 6176:0.0003 6177:0.0003 6178:0.0012 6179:0.0404 6180:0.1051 6181:0.0412 6182:0.0338 6183:0.0385 6184:0.0361 6185:0.0853 6186:1.01 6187:7.6316 6188:6.4405 6189:1.6279 6190:0.3458 6191:0.0953 6192:0.0578 6193:0.0608 6194:0.0263 6195:0.0145 6196:0.0126 6197:0.0099 6198:0.0049 6199:0.0039 6200:0.0009 6201:0.0004 6202:0.0004 6203:0.0002 6204:0.0001 6205:0.0001 6206:0 6207:0.0023 6208:0.008 6209:0.0334 6210:0.1152 6211:0.0384 6212:0.0169 6213:0.0688 6214:0.0614 6215:0.4601 6216:5.9534 6217:8.3495 6218:4.1804 6219:0.7188 6220:0.3663 6221:0.0197 6222:0.017 6223:0.0137 6224:0.0126 6225:0.0139 6226:0.0065 6227:0.0218 6228:0.0355 6229:0.0089 6230:0.0009 6231:0.0013 6232:0.0015 6233:0.0014 6234:0.0004 6235:0.0001 6236:0 6237:0 6238:0.0019 6239:0.0594 6240:0.0934 6241:0.0627 6242:0.0515 6243:0.0207 6244:0.0407 6245:0.0278 6246:0.0857 6247:0.1287 6248:0.0789 6249:0.1198 6250:0.2736 6251:0.1285 6252:0.0429 6253:0.0392 6254:0.0308 6255:0.0109 6256:0.0119 6257:0.0231 6258:0.0158 6259:0.0222 6260:0.0103 6261:0.0025 6262:0.0048 6263:0.005 6264:0.0367 6265:0.1369 6266:0.0429 6267:0.0066 6268:0.0012 6269:0.0009 6270:0.0004 6271:0.0001 6272:0.0001 6273:0 6274:0 6275:0 6276:0 6277:0 6278:0 6279:0 6280:0 6281:0 6282:0 6283:0 6284:0 6285:0 6286:0 6287:0 6288:0 6289:0 6290:0.0004 6291:0.0017 6292:0.008 6293:0.0114 6294:0.0065 6295:0.0062 6296:0.0025 6297:0.0019 6298:0.0006 6299:0.0007 6300:0.0007 6301:0.001 6302:0.0005 6303:0.0004 6304:0.0004 6305:0.0003 6306:0.0024 6307:0.1221 6308:0.2053 6309:0.0362 6310:0.0351 6311:0.016 6312:0.0193 6313:0.0577 6314:0.5248 6315:10.3756 6316:23.5412 6317:5.3531 6318:0.4574 6319:0.1736 6320:0.059 6321:0.0244 6322:0.0473 6323:0.0253 6324:0.0056 6325:0.0047 6326:0.0086 6327:0.0028 6328:0.0011 6329:0.0005 6330:0.0003 6331:0.0003 6332:0.0001 6333:0.0001 6334:0.0001 6335:0.0021 6336:0.0073 6337:0.0192 6338:0.038 6339:0.0191 6340:0.0337 6341:0.0495 6342:0.0415 6343:0.8004 6344:12.8907 6345:11.283 6346:1.8658 6347:0.4161 6348:0.3282 6349:0.0233 6350:0.0102 6351:0.0047 6352:0.0089 6353:0.0133 6354:0.0075 6355:0.0213 6356:0.0311 6357:0.0122 6358:0.0036 6359:0.001 6360:0.0008 6361:0.0006 6362:0.0003 6363:0.0001 6364:0 6365:0 6366:0.001 6367:0.0396 6368:0.0794 6369:0.0516 6370:0.0275 6371:0.0202 6372:0.0277 6373:0.0506 6374:0.0677 6375:0.0296 6376:0.05 6377:0.0727 6378:0.0579 6379:0.0237 6380:0.0054 6381:0.0037 6382:0.004 6383:0.0044 6384:0.0383 6385:0.0881 6386:0.0449 6387:0.0425 6388:0.0123 6389:0.0018 6390:0.005 6391:0.004 6392:0.0515 6393:0.1302 6394:0.0251 6395:0.0029 6396:0.0008 6397:0.0003 6398:0.0003 6399:0.0001 6400:0.0001 6401:0 6402:0 6403:0 6404:0 6405:0 6406:0 6407:0 6408:0 6409:0 6410:0 6411:0 6412:0 6413:0 6414:0 6415:0 6416:0 6417:0 6418:0.0001 6419:0.0034 6420:0.0129 6421:0.008 6422:0.0026 6423:0.0044 6424:0.0012 6425:0.0005 6426:0.0008 6427:0.0004 6428:0.0007 6429:0.0006 6430:0.0003 6431:0.0001 6432:0.0001 6433:0 6434:0.0011 6435:0.0457 6436:0.0933 6437:0.0217 6438:0.0188 6439:0.0369 6440:0.0321 6441:0.0702 6442:0.2677 6443:3.277 6444:12.5001 6445:4.9592 6446:0.2538 6447:0.0398 6448:0.0105 6449:0.0246 6450:0.0611 6451:0.0203 6452:0.0167 6453:0.0093 6454:0.0055 6455:0.0015 6456:0.0004 6457:0.0001 6458:0.0003 6459:0.0002 6460:0.0001 6461:0.0001 6462:0.0001 6463:0.0054 6464:0.0266 6465:0.0198 6466:0.0081 6467:0.0118 6468:0.0094 6469:0.0194 6470:0.0434 6471:0.8395 6472:8.8408 6473:6.8148 6474:1.0624 6475:0.3853 6476:0.0967 6477:0.0245 6478:0.0586 6479:0.0435 6480:0.0054 6481:0.0099 6482:0.0096 6483:0.0343 6484:0.0491 6485:0.0099 6486:0.0013 6487:0.0003 6488:0.0001 6489:0.0001 6490:0.0001 6491:0.0001 6492:0 6493:0 6494:0.0011 6495:0.0531 6496:0.1608 6497:0.0463 6498:0.0062 6499:0.005 6500:0.0425 6501:0.1185 6502:0.0358 6503:0.0145 6504:0.0386 6505:0.0276 6506:0.0194 6507:0.0122 6508:0.0076 6509:0.0042 6510:0.0082 6511:0.0056 6512:0.0157 6513:0.0324 6514:0.0123 6515:0.0123 6516:0.0101 6517:0.0042 6518:0.012 6519:0.0064 6520:0.0689 6521:0.1182 6522:0.0155 6523:0.0035 6524:0.0008 6525:0.0005 6526:0.0003 6527:0.0001 6528:0.0001 6529:0 6530:0 6531:0 6532:0 6533:0 6534:0 6535:0 6536:0 6537:0 6538:0 6539:0 6540:0 6541:0 6542:0 6543:0 6544:0 6545:0 6546:0.0001 6547:0.0014 6548:0.0022 6549:0.0023 6550:0.0155 6551:0.0158 6552:0.0028 6553:0.0005 6554:0.0007 6555:0.0005 6556:0.0003 6557:0.0003 6558:0.0001 6559:0.0002 6560:0.0002 6561:0.0001 6562:0.0003 6563:0.0093 6564:0.0584 6565:0.0361 6566:0.0224 6567:0.0354 6568:0.0331 6569:0.0751 6570:0.1811 6571:0.9455 6572:0.9868 6573:0.473 6574:0.0664 6575:0.0598 6576:0.0273 6577:0.0161 6578:0.0415 6579:0.0234 6580:0.0455 6581:0.0849 6582:0.0269 6583:0.004 6584:0.0006 6585:0.0003 6586:0.0003 6587:0.0001 6588:0 6589:0.0001 6590:0.0001 6591:0.0194 6592:0.1606 6593:0.1013 6594:0.0045 6595:0.0062 6596:0.006 6597:0.0132 6598:0.0442 6599:0.8284 6600:3.4643 6601:4.367 6602:1.5829 6603:0.2058 6604:0.0364 6605:0.0092 6606:0.0379 6607:0.0274 6608:0.0048 6609:0.0071 6610:0.0064 6611:0.0235 6612:0.0312 6613:0.0039 6614:0.0012 6615:0.0004 6616:0.0003 6617:0.0003 6618:0.0001 6619:0 6620:0 6621:0 6622:0.001 6623:0.0395 6624:0.273 6625:0.1316 6626:0.0112 6627:0.0092 6628:0.0216 6629:0.0338 6630:0.0148 6631:0.0062 6632:0.0052 6633:0.004 6634:0.0149 6635:0.0167 6636:0.0132 6637:0.0035 6638:0.0036 6639:0.0036 6640:0.0078 6641:0.0104 6642:0.009 6643:0.0207 6644:0.0372 6645:0.0451 6646:0.2669 6647:0.2338 6648:0.0751 6649:0.0538 6650:0.0039 6651:0.0016 6652:0.0007 6653:0.0004 6654:0.0002 6655:0.0001 6656:0 6657:0 6658:0 6659:0 6660:0 6661:0 6662:0 6663:0 6664:0 6665:0 6666:0 6667:0 6668:0 6669:0 6670:0 6671:0 6672:0 6673:0 6674:0.0001 6675:0.0051 6676:0.0079 6677:0.0048 6678:0.055 6679:0.0601 6680:0.0055 6681:0.0019 6682:0.0008 6683:0.0006 6684:0.0004 6685:0.0003 6686:0.0001 6687:0.0001 6688:0.0002 6689:0.0002 6690:0.0002 6691:0.0065 6692:0.0395 6693:0.0265 6694:0.0447 6695:0.0474 6696:0.0514 6697:0.1244 6698:0.3175 6699:1.1387 6700:2.3825 6701:0.9525 6702:0.0755 6703:0.1334 6704:0.0524 6705:0.0198 6706:0.049 6707:0.0811 6708:0.335 6709:0.3675 6710:0.05 6711:0.0064 6712:0.0018 6713:0.0006 6714:0.0001 6715:0.0001 6716:0.0001 6717:0 6718:0.0001 6719:0.0305 6720:0.1471 6721:0.1284 6722:0.0158 6723:0.0066 6724:0.0145 6725:0.0182 6726:0.0215 6727:0.5942 6728:4.96 6729:10.3609 6730:2.4723 6731:0.0906 6732:0.0693 6733:0.0375 6734:0.0137 6735:0.0095 6736:0.0052 6737:0.0068 6738:0.0033 6739:0.0122 6740:0.0235 6741:0.005 6742:0.0002 6743:0.0007 6744:0.001 6745:0.0002 6746:0 6747:0 6748:0 6749:0 6750:0.0022 6751:0.0286 6752:0.4113 6753:0.3544 6754:0.0222 6755:0.0191 6756:0.0072 6757:0.0061 6758:0.0121 6759:0.0119 6760:0.0071 6761:0.0054 6762:0.0045 6763:0.0041 6764:0.0063 6765:0.01 6766:0.0659 6767:0.0596 6768:0.3625 6769:1.3959 6770:1.873 6771:2.1608 6772:2.2729 6773:2.5719 6774:3.3995 6775:2.5632 6776:0.6408 6777:0.0536 6778:0.0097 6779:0.0088 6780:0.0081 6781:0.0046 6782:0.0016 6783:0.0012 6784:0.0004 6785:0 6786:0 6787:0 6788:0 6789:0 6790:0 6791:0 6792:0 6793:0 6794:0 6795:0 6796:0 6797:0 6798:0 6799:0 6800:0 6801:0 6802:0.0002 6803:0.0053 6804:0.0069 6805:0.0035 6806:0.0127 6807:0.0139 6808:0.003 6809:0.0017 6810:0.001 6811:0.0008 6812:0.0005 6813:0.0006 6814:0.0005 6815:0.0001 6816:0 6817:0.0001 6818:0.0001 6819:0.0023 6820:0.0297 6821:0.022 6822:0.0117 6823:0.0175 6824:0.0195 6825:0.0275 6826:0.3297 6827:1.4604 6828:1.4337 6829:0.4063 6830:0.1118 6831:0.1193 6832:0.0161 6833:0.0093 6834:0.0504 6835:0.5919 6836:0.6629 6837:0.1209 6838:0.0233 6839:0.0083 6840:0.0014 6841:0.0005 6842:0.0001 6843:0.0002 6844:0.0003 6845:0 6846:0.0001 6847:0.0251 6848:0.1791 6849:0.5518 6850:0.2908 6851:0.0491 6852:0.0757 6853:0.103 6854:0.015 6855:0.2336 6856:4.6382 6857:16.8499 6858:4.8495 6859:0.0742 6860:0.2783 6861:0.1162 6862:0.0119 6863:0.0059 6864:0.0046 6865:0.0037 6866:0.0018 6867:0.0041 6868:0.0067 6869:0.0022 6870:0.0009 6871:0.001 6872:0.0007 6873:0.0001 6874:0 6875:0.0001 6876:0 6877:0 6878:0.0044 6879:0.0195 6880:0.4012 6881:1.3735 6882:0.5591 6883:0.0371 6884:0.0296 6885:0.0083 6886:0.0151 6887:0.0115 6888:0.0078 6889:0.0045 6890:0.0067 6891:0.0234 6892:0.0696 6893:0.1809 6894:0.5501 6895:1.0941 6896:0.7235 6897:1.0016 6898:1.3467 6899:1.0754 6900:0.6663 6901:0.7802 6902:0.5333 6903:0.6216 6904:0.4381 6905:0.026 6906:0.0028 6907:0.0029 6908:0.0035 6909:0.0024 6910:0.0005 6911:0.0004 6912:0.0004 6913:0 6914:0 6915:0 6916:0 6917:0 6918:0 6919:0 6920:0 6921:0 6922:0 6923:0 6924:0 6925:0 6926:0 6927:0 6928:0 6929:0 6930:0.0002 6931:0.0018 6932:0.003 6933:0.0047 6934:0.0037 6935:0.0013 6936:0.0017 6937:0.0008 6938:0.0007 6939:0.0004 6940:0.0002 6941:0.0005 6942:0.0003 6943:0.0001 6944:0 6945:0 6946:0.0001 6947:0.0024 6948:0.0286 6949:0.0353 6950:0.0055 6951:0.0053 6952:0.0111 6953:0.0264 6954:0.2046 6955:1.0512 6956:0.6702 6957:0.1831 6958:0.0986 6959:0.0867 6960:0.0117 6961:0.0191 6962:0.5268 6963:1.2483 6964:0.4283 6965:0.0338 6966:0.022 6967:0.0065 6968:0.0004 6969:0.0003 6970:0.0002 6971:0.0002 6972:0.0002 6973:0 6974:0 6975:0.0055 6976:0.1204 6977:1.1981 6978:2.0433 6979:1.3339 6980:1.6712 6981:1.5565 6982:0.1972 6983:0.0716 6984:1.7014 6985:5.1106 6986:1.5211 6987:0.0738 6988:0.1932 6989:0.0488 6990:0.0087 6991:0.0042 6992:0.0026 6993:0.0018 6994:0.0012 6995:0.0059 6996:0.0139 6997:0.0054 6998:0.0009 6999:0.0003 7000:0.0005 7001:0.0002 7002:0 7003:0 7004:0 7005:0 7006:0.0059 7007:0.0273 7008:0.2059 7009:2.1556 7010:2.8839 7011:1.8824 7012:1.5875 7013:1.0191 7014:0.8327 7015:0.221 7016:0.0297 7017:0.054 7018:0.4823 7019:1.3508 7020:1.658 7021:1.6478 7022:0.9723 7023:0.4168 7024:0.1304 7025:0.0239 7026:0.0126 7027:0.0077 7028:0.0039 7029:0.0101 7030:0.0065 7031:0.0062 7032:0.0085 7033:0.0052 7034:0.0066 7035:0.0021 7036:0.0005 7037:0.0001 7038:0.0001 7039:0 7040:0 7041:0 7042:0 7043:0 7044:0 7045:0 7046:0 7047:0 7048:0 7049:0 7050:0 7051:0 7052:0 7053:0 7054:0 7055:0 7056:0 7057:0 7058:0.0005 7059:0.0018 7060:0.0014 7061:0.0022 7062:0.0022 7063:0.0007 7064:0.0009 7065:0.0004 7066:0.0005 7067:0.0002 7068:0.0001 7069:0.0001 7070:0.0001 7071:0.0001 7072:0 7073:0 7074:0.0001 7075:0.0064 7076:0.0387 7077:0.1379 7078:0.0704 7079:0.0075 7080:0.0037 7081:0.0176 7082:0.1999 7083:1.515 7084:0.9741 7085:0.2391 7086:0.2552 7087:0.0899 7088:0.0117 7089:0.0583 7090:0.8348 7091:0.8504 7092:0.0711 7093:0.0124 7094:0.0105 7095:0.0031 7096:0.0004 7097:0.0002 7098:0.0002 7099:0.0001 7100:0.0001 7101:0.0001 7102:0 7103:0.001 7104:0.0171 7105:0.0628 7106:0.3141 7107:1.1461 7108:1.6563 7109:2.7295 7110:2.9759 7111:0.48 7112:0.6216 7113:0.6519 7114:0.3469 7115:0.1332 7116:0.1419 7117:0.0192 7118:0.0012 7119:0.0066 7120:0.0077 7121:0.0021 7122:0.001 7123:0.0086 7124:0.0324 7125:0.0126 7126:0.0009 7127:0.0003 7128:0.0002 7129:0.0001 7130:0 7131:0 7132:0 7133:0 7134:0.0028 7135:0.0267 7136:0.0358 7137:0.0946 7138:0.1623 7139:0.479 7140:1.2599 7141:1.4139 7142:0.8735 7143:0.6659 7144:0.4121 7145:1.1662 7146:1.9903 7147:1.1956 7148:0.2727 7149:0.0847 7150:0.0318 7151:0.0126 7152:0.0062 7153:0.0118 7154:0.0153 7155:0.0069 7156:0.0018 7157:0.0012 7158:0.0018 7159:0.0022 7160:0.0027 7161:0.0013 7162:0.0022 7163:0.0014 7164:0.0002 7165:0.0001 7166:0 7167:0.0001 7168:0.0001 7169:0 7170:0 7171:0 7172:0 7173:0 7174:0 7175:0 7176:0 7177:0 7178:0 7179:0 7180:0 7181:0 7182:0 7183:0 7184:0 7185:0 7186:0.0001 7187:0.0004 7188:0.0015 7189:0.0028 7190:0.0011 7191:0.0024 7192:0.0014 7193:0.0003 7194:0.0005 7195:0.0002 7196:0 7197:0 7198:0.0001 7199:0 7200:0 7201:0 7202:0.0001 7203:0.001 7204:0.0129 7205:0.1023 7206:0.3089 7207:0.3285 7208:0.1073 7209:0.0186 7210:0.1268 7211:0.6484 7212:0.4832 7213:0.274 7214:0.6477 7215:0.2091 7216:0.0119 7217:0.1385 7218:0.4211 7219:0.1073 7220:0.0063 7221:0.0079 7222:0.0096 7223:0.0012 7224:0.0007 7225:0.0006 7226:0.0002 7227:0.0001 7228:0.0002 7229:0.0001 7230:0 7231:0.001 7232:0.0027 7233:0.0059 7234:0.0229 7235:0.0275 7236:0.0567 7237:0.4521 7238:1.7933 7239:1.3003 7240:0.2866 7241:0.8949 7242:0.8342 7243:0.0845 7244:0.0171 7245:0.0027 7246:0.0031 7247:0.0102 7248:0.0092 7249:0.0015 7250:0.001 7251:0.0097 7252:0.0152 7253:0.0041 7254:0.0003 7255:0.0001 7256:0 7257:0 7258:0.0001 7259:0 7260:0 7261:0 7262:0.0048 7263:0.045 7264:0.0385 7265:0.0273 7266:0.0123 7267:0.0227 7268:0.025 7269:0.0214 7270:0.0537 7271:0.1121 7272:0.2986 7273:0.4308 7274:0.193 7275:0.0183 7276:0.0087 7277:0.0054 7278:0.0043 7279:0.0036 7280:0.0056 7281:0.0194 7282:0.0133 7283:0.0025 7284:0.0019 7285:0.0013 7286:0.0021 7287:0.0043 7288:0.0036 7289:0.001 7290:0.0013 7291:0.0008 7292:0.0001 7293:0 7294:0 7295:0 7296:0.0001 7297:0 7298:0 7299:0 7300:0 7301:0 7302:0 7303:0 7304:0 7305:0 7306:0 7307:0 7308:0 7309:0 7310:0 7311:0 7312:0 7313:0 7314:0 7315:0.0005 7316:0.0023 7317:0.004 7318:0.0031 7319:0.001 7320:0.0005 7321:0.0002 7322:0.0001 7323:0.0002 7324:0.0001 7325:0 7326:0 7327:0 7328:0 7329:0 7330:0.0002 7331:0.0023 7332:0.0043 7333:0.0061 7334:0.1061 7335:0.6528 7336:0.759 7337:0.195 7338:0.1464 7339:0.4296 7340:0.5262 7341:0.1722 7342:0.4424 7343:0.2224 7344:0.0095 7345:0.0724 7346:0.143 7347:0.0289 7348:0.0044 7349:0.0056 7350:0.0067 7351:0.0006 7352:0.0004 7353:0.0003 7354:0.0001 7355:0.0001 7356:0.0001 7357:0.0001 7358:0 7359:0.0028 7360:0.0151 7361:0.0224 7362:0.01 7363:0.0067 7364:0.0144 7365:0.0274 7366:0.717 7367:1.6352 7368:0.4062 7369:0.7714 7370:0.7435 7371:0.0529 7372:0.0153 7373:0.0036 7374:0.0155 7375:0.0149 7376:0.0036 7377:0.0043 7378:0.0045 7379:0.0037 7380:0.0093 7381:0.0033 7382:0.0006 7383:0.0005 7384:0 7385:0 7386:0 7387:0 7388:0 7389:0 7390:0.0051 7391:0.0732 7392:0.0789 7393:0.0691 7394:0.0251 7395:0.0083 7396:0.0085 7397:0.0064 7398:0.0142 7399:0.0212 7400:0.019 7401:0.0168 7402:0.016 7403:0.0089 7404:0.0066 7405:0.0039 7406:0.0015 7407:0.0018 7408:0.0077 7409:0.0151 7410:0.007 7411:0.0037 7412:0.0029 7413:0.0015 7414:0.002 7415:0.0037 7416:0.0075 7417:0.0107 7418:0.0038 7419:0.0008 7420:0.0005 7421:0.0002 7422:0 7423:0 7424:0 7425:0 7426:0 7427:0 7428:0 7429:0 7430:0 7431:0 7432:0 7433:0 7434:0 7435:0 7436:0 7437:0 7438:0 7439:0 7440:0 7441:0 7442:0 7443:0.0006 7444:0.001 7445:0.0013 7446:0.002 7447:0.002 7448:0.0007 7449:0.0001 7450:0.0001 7451:0.0001 7452:0.0001 7453:0.0001 7454:0.0001 7455:0 7456:0 7457:0.0001 7458:0.0003 7459:0.0047 7460:0.0247 7461:0.0144 7462:0.0071 7463:0.1746 7464:2.0049 7465:2.6449 7466:0.7301 7467:0.9582 7468:0.5549 7469:0.1298 7470:0.107 7471:0.0342 7472:0.0024 7473:0.0024 7474:0.0048 7475:0.02 7476:0.0199 7477:0.0097 7478:0.0075 7479:0.0014 7480:0.0002 7481:0.0001 7482:0.0001 7483:0 7484:0 7485:0 7486:0 7487:0.0011 7488:0.005 7489:0.0071 7490:0.0039 7491:0.0027 7492:0.008 7493:0.0133 7494:0.1534 7495:1.5362 7496:1.6152 7497:0.7429 7498:0.2523 7499:0.0205 7500:0.015 7501:0.0076 7502:0.0098 7503:0.0071 7504:0.0091 7505:0.1076 7506:0.1473 7507:0.0223 7508:0.0046 7509:0.0023 7510:0.0007 7511:0.0005 7512:0.0002 7513:0.0001 7514:0 7515:0 7516:0 7517:0 7518:0.0074 7519:0.1866 7520:0.2111 7521:0.086 7522:0.0309 7523:0.0059 7524:0.0137 7525:0.0472 7526:0.0641 7527:0.018 7528:0.0051 7529:0.0068 7530:0.0124 7531:0.0059 7532:0.0045 7533:0.0048 7534:0.0041 7535:0.0049 7536:0.028 7537:0.0402 7538:0.0456 7539:0.021 7540:0.0099 7541:0.0191 7542:0.0163 7543:0.0024 7544:0.0074 7545:0.0143 7546:0.0063 7547:0.0017 7548:0.0005 7549:0.0001 7550:0 7551:0 7552:0.0001 7553:0 7554:0 7555:0 7556:0 7557:0 7558:0 7559:0 7560:0 7561:0 7562:0 7563:0 7564:0 7565:0 7566:0 7567:0 7568:0 7569:0 7570:0 7571:0.0003 7572:0.0009 7573:0.0026 7574:0.0034 7575:0.0023 7576:0.0023 7577:0.0015 7578:0.0006 7579:0.0002 7580:0.0001 7581:0.0001 7582:0.0001 7583:0 7584:0 7585:0 7586:0.0002 7587:0.0033 7588:0.0109 7589:0.0077 7590:0.0041 7591:0.0165 7592:0.5746 7593:2.4046 7594:1.5043 7595:0.4035 7596:0.4103 7597:0.1608 7598:0.0279 7599:0.0142 7600:0.0025 7601:0.0035 7602:0.0071 7603:0.014 7604:0.0158 7605:0.0063 7606:0.0031 7607:0.001 7608:0.0001 7609:0 7610:0 7611:0 7612:0 7613:0 7614:0 7615:0.0006 7616:0.0068 7617:0.0187 7618:0.0166 7619:0.0162 7620:0.0172 7621:0.0247 7622:0.0581 7623:0.6164 7624:2.0469 7625:1.4573 7626:0.1555 7627:0.0172 7628:0.0138 7629:0.0108 7630:0.0103 7631:0.0067 7632:0.0406 7633:0.0997 7634:0.0984 7635:0.0338 7636:0.0047 7637:0.0013 7638:0.0003 7639:0.0003 7640:0.0002 7641:0.0001 7642:0.0001 7643:0.0001 7644:0 7645:0 7646:0.0044 7647:0.2583 7648:0.3849 7649:0.0956 7650:0.0416 7651:0.0272 7652:0.0211 7653:0.0471 7654:0.0529 7655:0.0159 7656:0.0067 7657:0.0105 7658:0.0103 7659:0.0089 7660:0.0257 7661:0.0505 7662:0.0457 7663:0.0377 7664:0.043 7665:0.0324 7666:0.0365 7667:0.0143 7668:0.0045 7669:0.0144 7670:0.0141 7671:0.0016 7672:0.0039 7673:0.01 7674:0.0021 7675:0.0005 7676:0.0005 7677:0.0002 7678:0 7679:0 7680:0 7681:0 7682:0 7683:0 7684:0 7685:0 7686:0 7687:0 7688:0 7689:0 7690:0 7691:0 7692:0 7693:0 7694:0 7695:0 7696:0 7697:0 7698:0.0001 7699:0.0004 7700:0.0004 7701:0.0018 7702:0.0042 7703:0.0013 7704:0.001 7705:0.0008 7706:0.0005 7707:0.0002 7708:0.0001 7709:0 7710:0 7711:0 7712:0 7713:0.0001 7714:0.0005 7715:0.0313 7716:0.0894 7717:0.0343 7718:0.0068 7719:0.0097 7720:0.0384 7721:0.8494 7722:2.1205 7723:0.7574 7724:0.55 7725:0.2149 7726:0.0118 7727:0.0083 7728:0.0022 7729:0.0084 7730:0.0177 7731:0.0132 7732:0.0097 7733:0.0043 7734:0.002 7735:0.0005 7736:0.0001 7737:0.0001 7738:0.0001 7739:0 7740:0 7741:0 7742:0 7743:0.0029 7744:0.0188 7745:0.012 7746:0.0287 7747:0.0353 7748:0.051 7749:0.0496 7750:0.0403 7751:0.1945 7752:2.0331 7753:1.9816 7754:0.1997 7755:0.0259 7756:0.0127 7757:0.0037 7758:0.0056 7759:0.0167 7760:0.0281 7761:0.0074 7762:0.0098 7763:0.0176 7764:0.0081 7765:0.002 7766:0.0004 7767:0.0001 7768:0.0001 7769:0.0001 7770:0 7771:0 7772:0 7773:0 7774:0.0033 7775:0.318 7776:0.6593 7777:0.1095 7778:0.1267 7779:0.1892 7780:0.0919 7781:0.0282 7782:0.1025 7783:0.0463 7784:0.0181 7785:0.0379 7786:0.023 7787:0.0238 7788:0.0444 7789:0.0665 7790:0.0305 7791:0.01 7792:0.0096 7793:0.0046 7794:0.0135 7795:0.0301 7796:0.0093 7797:0.0015 7798:0.0029 7799:0.0021 7800:0.0113 7801:0.0238 7802:0.0039 7803:0.0009 7804:0.0007 7805:0.0005 7806:0.0001 7807:0 7808:0 7809:0 7810:0 7811:0 7812:0 7813:0 7814:0 7815:0 7816:0 7817:0 7818:0 7819:0 7820:0 7821:0 7822:0 7823:0 7824:0 7825:0 7826:0 7827:0.0001 7828:0.0001 7829:0.0015 7830:0.0038 7831:0.0012 7832:0.0007 7833:0.0005 7834:0.0003 7835:0.0003 7836:0.0001 7837:0 7838:0 7839:0 7840:0 7841:0 7842:0.0006 7843:0.0345 7844:0.1612 7845:0.1244 7846:0.0299 7847:0.0261 7848:0.045 7849:0.109 7850:0.4466 7851:0.6056 7852:0.4818 7853:0.1124 7854:0.0461 7855:0.0114 7856:0.003 7857:0.0074 7858:0.0162 7859:0.0131 7860:0.0079 7861:0.008 7862:0.0031 7863:0.0006 7864:0.0002 7865:0.0001 7866:0 7867:0 7868:0 7869:0 7870:0 7871:0.0292 7872:0.3076 7873:0.2057 7874:0.0132 7875:0.0049 7876:0.0154 7877:0.0275 7878:0.0584 7879:0.1135 7880:0.5748 7881:1.1593 7882:0.3762 7883:0.0433 7884:0.029 7885:0.0067 7886:0.0312 7887:0.0436 7888:0.0212 7889:0.0023 7890:0.018 7891:0.1101 7892:0.0486 7893:0.0016 7894:0.0003 7895:0.0003 7896:0.0002 7897:0.0001 7898:0 7899:0 7900:0 7901:0 7902:0.0154 7903:0.5456 7904:2.0363 7905:0.6483 7906:0.101 7907:0.0676 7908:0.0394 7909:0.016 7910:0.0321 7911:0.0556 7912:0.0475 7913:0.045 7914:0.0372 7915:0.0249 7916:0.0832 7917:0.067 7918:0.013 7919:0.0041 7920:0.0089 7921:0.0061 7922:0.0215 7923:0.0481 7924:0.0171 7925:0.0024 7926:0.0053 7927:0.0041 7928:0.0381 7929:0.0432 7930:0.0043 7931:0.0007 7932:0.0002 7933:0.0001 7934:0.0001 7935:0 7936:0 7937:0 7938:0 7939:0 7940:0 7941:0 7942:0 7943:0 7944:0 7945:0 7946:0 7947:0 7948:0 7949:0 7950:0 7951:0 7952:0 7953:0 7954:0 7955:0.0005 7956:0.0008 7957:0.0007 7958:0.001 7959:0.0007 7960:0.0009 7961:0.0014 7962:0.0007 7963:0.0001 7964:0.0001 7965:0 7966:0.0001 7967:0.0001 7968:0.0001 7969:0 7970:0.0002 7971:0.0488 7972:0.3176 7973:0.1532 7974:0.0216 7975:0.0187 7976:0.0225 7977:0.0078 7978:0.137 7979:0.7469 7980:0.7303 7981:0.1442 7982:0.057 7983:0.0118 7984:0.0012 7985:0.0053 7986:0.0113 7987:0.0104 7988:0.0077 7989:0.0042 7990:0.0018 7991:0.0004 7992:0.0001 7993:0 7994:0 7995:0 7996:0 7997:0 7998:0.0001 7999:0.0683 8000:1.1474 8001:1.0785 8002:0.0677 8003:0.0103 8004:0.0124 8005:0.0345 8006:0.1102 8007:0.2438 8008:0.8479 8009:1.7138 8010:0.4024 8011:0.0362 8012:0.023 8013:0.0064 8014:0.0626 8015:0.054 8016:0.0053 8017:0.001 8018:0.0368 8019:0.3267 8020:0.1693 8021:0.0022 8022:0.0008 8023:0.0006 8024:0.0002 8025:0.0001 8026:0 8027:0 8028:0 8029:0 8030:0.0503 8031:0.6074 8032:3.6504 8033:2.0593 8034:0.0528 8035:0.0163 8036:0.0624 8037:0.0986 8038:0.0309 8039:0.0794 8040:0.1207 8041:0.0709 8042:0.0319 8043:0.0132 8044:0.0188 8045:0.0167 8046:0.018 8047:0.0155 8048:0.1093 8049:0.1434 8050:0.0661 8051:0.1233 8052:0.2545 8053:0.18 8054:0.5327 8055:0.3486 8056:0.082 8057:0.0436 8058:0.0015 8059:0.0006 8060:0.0006 8061:0.0003 8062:0.0001 8063:0.0001 8064:0.0001 8065:0 8066:0 8067:0 8068:0 8069:0 8070:0 8071:0 8072:0 8073:0 8074:0 8075:0 8076:0 8077:0 8078:0 8079:0 8080:0 8081:0 8082:0 8083:0.0008 8084:0.0009 8085:0.0006 8086:0.0005 8087:0.0016 8088:0.0019 8089:0.0005 8090:0.0002 8091:0.0001 8092:0.0001 8093:0.0001 8094:0.0001 8095:0 8096:0 8097:0 8098:0.0009 8099:0.0363 8100:0.3707 8101:0.297 8102:0.0165 8103:0.0242 8104:0.0271 8105:0.0124 8106:0.0807 8107:0.7718 8108:0.8748 8109:0.1169 8110:0.05 8111:0.0237 8112:0.0026 8113:0.0053 8114:0.02 8115:0.0145 8116:0.0032 8117:0.0028 8118:0.0032 8119:0.001 8120:0.0003 8121:0.0001 8122:0 8123:0 8124:0.0001 8125:0 8126:0.0002 8127:0.0915 8128:1.026 8129:1.4507 8130:0.1352 8131:0.0266 8132:0.0466 8133:0.0624 8134:0.2223 8135:0.7951 8136:1.4444 8137:2.7245 8138:0.696 8139:0.0438 8140:0.0155 8141:0.0094 8142:0.014 8143:0.0081 8144:0.0012 8145:0.0015 8146:0.027 8147:0.3788 8148:0.2865 8149:0.0078 8150:0.0008 8151:0.0005 8152:0.0002 8153:0 8154:0 8155:0 8156:0 8157:0 8158:0.067 8159:0.5696 8160:7.3916 8161:8.2708 8162:0.5083 8163:0.0492 8164:0.0627 8165:0.1276 8166:0.0919 8167:0.057 8168:0.0465 8169:0.069 8170:0.0526 8171:0.0296 8172:0.0427 8173:0.0757 8174:0.7767 8175:1.8426 8176:8.305 8177:17.1622 8178:16.9224 8179:11.9133 8180:6.5084 8181:3.9871 8182:3.4117 8183:2.5693 8184:0.9671 8185:0.098 8186:0.0032 8187:0.0032 8188:0.0047 8189:0.0012 8190:0.0003 8191:0.0005 8192:0.0003 8193:0 8194:0 8195:0 8196:0 8197:0 8198:0 8199:0 8200:0 8201:0 8202:0 8203:0 8204:0 8205:0 8206:0 8207:0 8208:0 8209:0 8210:0 8211:0.0004 8212:0.0004 8213:0.0006 8214:0.0008 8215:0.0009 8216:0.0008 8217:0.0007 8218:0.0005 8219:0.0001 8220:0 8221:0 8222:0 8223:0 8224:0 8225:0 8226:0.0017 8227:0.0581 8228:0.8454 8229:0.9276 8230:0.0734 8231:0.0388 8232:0.0274 8233:0.0509 8234:0.3387 8235:0.7322 8236:0.4333 8237:0.1805 8238:0.0397 8239:0.0504 8240:0.0087 8241:0.0128 8242:0.0712 8243:0.0418 8244:0.0051 8245:0.0036 8246:0.0017 8247:0.001 8248:0.0003 8249:0.0001 8250:0 8251:0 8252:0 8253:0 8254:0.0003 8255:0.1339 8256:1.4742 8257:9.7165 8258:11.466 8259:3.0043 8260:1.5263 8261:1.3479 8262:0.2792 8263:1.1014 8264:2.3737 8265:2.1857 8266:0.3543 8267:0.0407 8268:0.0852 8269:0.0345 8270:0.0037 8271:0.003 8272:0.0013 8273:0.0114 8274:0.0212 8275:0.2227 8276:0.2906 8277:0.0195 8278:0.0009 8279:0.0009 8280:0.0002 8281:0 8282:0 8283:0 8284:0 8285:0 8286:0.054 8287:0.5822 8288:8.2355 8289:28.148 8290:25.0392 8291:9.2377 8292:0.7549 8293:0.1814 8294:0.5209 8295:0.3284 8296:0.048 8297:0.0587 8298:0.1432 8299:1.3312 8300:6.2202 8301:13.7908 8302:24.2612 8303:34.0374 8304:20.5739 8305:7.9874 8306:5.7615 8307:2.6252 8308:0.6556 8309:0.3507 8310:0.1588 8311:0.4461 8312:0.4463 8313:0.0371 8314:0.0084 8315:0.0025 8316:0.001 8317:0.0005 8318:0.0002 8319:0.0001 8320:0 8321:0 8322:0 8323:0 8324:0 8325:0 8326:0 8327:0 8328:0 8329:0 8330:0 8331:0 8332:0 8333:0 8334:0 8335:0 8336:0 8337:0 8338:0.0001 8339:0.0003 8340:0.0001 8341:0.001 8342:0.0017 8343:0.0008 8344:0.001 8345:0.0009 8346:0.0004 8347:0.0002 8348:0 8349:0 8350:0 8351:0 8352:0 8353:0.0001 8354:0.0008 8355:0.0207 8356:1.066 8357:2.3289 8358:0.4417 8359:0.04 8360:0.0289 8361:0.1017 8362:0.8131 8363:1.8193 8364:0.7961 8365:0.2465 8366:0.0515 8367:0.0545 8368:0.0091 8369:0.0196 8370:0.0289 8371:0.0247 8372:0.0049 8373:0.0023 8374:0.0047 8375:0.0023 8376:0.0004 8377:0.0001 8378:0.0001 8379:0.0001 8380:0 8381:0 8382:0.0001 8383:0.0707 8384:1.0192 8385:16.5034 8386:49.7142 8387:47.688 8388:38.3495 8389:33.6146 8390:6.7762 8391:0.9665 8392:2.2819 8393:1.6605 8394:0.1587 8395:0.0345 8396:0.0574 8397:0.0155 8398:0.0034 8399:0.0026 8400:0.0031 8401:0.0186 8402:0.0155 8403:0.0307 8404:0.0506 8405:0.0081 8406:0.0008 8407:0.0002 8408:0.0001 8409:0 8410:0 8411:0 8412:0 8413:0 8414:0.1401 8415:1.3252 8416:3.2808 8417:31.9883 8418:78.7576 8419:75.3073 8420:58.158 8421:45.2031 8422:22.2578 8423:7.439 8424:0.8633 8425:1.3747 8426:20.4147 8427:55.4511 8428:62.232 8429:45.3225 8430:28.5279 8431:8.2789 8432:1.0145 8433:0.1373 8434:0.0267 8435:0.0271 8436:0.0106 8437:0.0058 8438:0.009 8439:0.008 8440:0.0143 8441:0.0252 8442:0.0184 8443:0.0035 8444:0.0005 8445:0.0002 8446:0.0001 8447:0.0001 8448:0.0001 8449:0 8450:0 8451:0 8452:0 8453:0 8454:0 8455:0 8456:0 8457:0 8458:0 8459:0 8460:0 8461:0 8462:0 8463:0 8464:0 8465:0 8466:0.0001 8467:0.0001 8468:0.0001 8469:0.0004 8470:0.0009 8471:0.0032 8472:0.0037 8473:0.0011 8474:0.0003 8475:0.0001 8476:0.0001 8477:0.0001 8478:0.0001 8479:0 8480:0.0001 8481:0 8482:0.0008 8483:0.0548 8484:2.0586 8485:20.3105 8486:22.334 8487:2.9461 8488:0.1727 8489:0.1081 8490:0.2718 8491:0.5682 8492:0.5054 8493:0.1808 8494:0.0968 8495:0.0846 8496:0.0144 8497:0.0452 8498:0.0467 8499:0.034 8500:0.006 8501:0.0029 8502:0.0057 8503:0.0022 8504:0.0003 8505:0.0001 8506:0.0001 8507:0.0001 8508:0 8509:0 8510:0.0002 8511:0.1093 8512:0.3746 8513:0.4137 8514:2.4603 8515:17.6024 8516:24.2838 8517:26.442 8518:23.872 8519:2.8444 8520:1.5109 8521:1.079 8522:0.226 8523:0.0889 8524:0.0525 8525:0.0078 8526:0.0037 8527:0.0041 8528:0.0156 8529:0.0301 8530:0.0114 8531:0.0095 8532:0.0046 8533:0.0012 8534:0.0006 8535:0.0003 8536:0.0001 8537:0.0001 8538:0 8539:0 8540:0 8541:0 8542:0.1422 8543:2.823 8544:3.0108 8545:1.0255 8546:1.1069 8547:4.4252 8548:18.0161 8549:27.2051 8550:16.782 8551:47.2024 8552:57.1554 8553:52.6251 8554:38.1993 8555:18.9174 8556:4.0429 8557:0.9065 8558:0.6103 8559:0.1405 8560:0.0256 8561:0.0472 8562:0.0284 8563:0.0217 8564:0.0156 8565:0.0085 8566:0.0116 8567:0.0089 8568:0.0105 8569:0.0297 8570:0.0179 8571:0.0036 8572:0.0008 8573:0.0003 8574:0.0001 8575:0.0001 8576:0 8577:0 8578:0 8579:0 8580:0 8581:0 8582:0 8583:0 8584:0 8585:0 8586:0 8587:0 8588:0 8589:0 8590:0 8591:0 8592:0 8593:0 8594:0 8595:0.0002 8596:0.0009 8597:0.0011 8598:0.0026 8599:0.0066 8600:0.0051 8601:0.0026 8602:0.0008 8603:0.0003 8604:0.0001 8605:0.0001 8606:0.0001 8607:0.0001 8608:0 8609:0.0002 8610:0.0019 8611:0.2837 8612:1.0369 8613:10.2751 8614:55.5027 8615:76.3325 8616:26.07 8617:1.164 8618:2.5787 8619:3.7003 8620:0.6042 8621:0.1833 8622:0.6028 8623:0.3135 8624:0.015 8625:0.0347 8626:0.0297 8627:0.0203 8628:0.0106 8629:0.0123 8630:0.0235 8631:0.0073 8632:0.0003 8633:0.0001 8634:0.0001 8635:0.0001 8636:0.0001 8637:0 8638:0.0002 8639:0.0748 8640:0.2679 8641:0.1752 8642:0.0712 8643:0.2623 8644:0.4192 8645:1.1408 8646:3.3749 8647:2.3645 8648:3.4562 8649:2.8701 8650:0.6453 8651:0.0495 8652:0.0358 8653:0.0051 8654:0.0016 8655:0.003 8656:0.0105 8657:0.0181 8658:0.006 8659:0.0095 8660:0.0128 8661:0.0034 8662:0.0012 8663:0.0004 8664:0.0002 8665:0.0001 8666:0 8667:0 8668:0 8669:0 8670:0.1165 8671:3.648 8672:4.7224 8673:0.5483 8674:0.2226 8675:0.201 8676:0.1138 8677:0.2099 8678:1.1747 8679:9.1546 8680:29.8109 8681:29.3434 8682:5.7114 8683:0.2865 8684:0.093 8685:0.0211 8686:0.0493 8687:0.0806 8688:0.0719 8689:0.0974 8690:0.0687 8691:0.0355 8692:0.021 8693:0.0319 8694:0.0407 8695:0.0222 8696:0.0176 8697:0.0215 8698:0.0069 8699:0.0009 8700:0.0006 8701:0.0004 8702:0.0001 8703:0.0001 8704:0.0001 8705:0 8706:0 8707:0 8708:0 8709:0 8710:0 8711:0 8712:0 8713:0 8714:0 8715:0 8716:0 8717:0 8718:0 8719:0 8720:0 8721:0 8722:0 8723:0.0002 8724:0.0014 8725:0.0015 8726:0.0031 8727:0.0023 8728:0.0012 8729:0.0011 8730:0.0006 8731:0.0002 8732:0.0001 8733:0.0001 8734:0.0001 8735:0.0001 8736:0.0001 8737:0.0002 8738:0.0055 8739:0.8843 8740:2.1496 8741:0.6106 8742:6.3167 8743:60.7798 8744:94.2794 8745:24.247 8746:12.7306 8747:13.3297 8748:1.822 8749:0.3591 8750:0.3291 8751:0.1441 8752:0.0144 8753:0.0229 8754:0.0463 8755:0.1508 8756:0.0855 8757:0.0069 8758:0.0059 8759:0.0023 8760:0.0003 8761:0.0001 8762:0.0001 8763:0.0002 8764:0.0001 8765:0 8766:0.0001 8767:0.0061 8768:0.096 8769:0.1584 8770:0.0548 8771:0.0463 8772:0.1256 8773:0.1515 8774:0.4721 8775:2.0013 8776:2.9975 8777:2.6276 8778:0.9725 8779:0.0565 8780:0.0179 8781:0.0058 8782:0.0112 8783:0.0074 8784:0.0053 8785:0.0177 8786:0.021 8787:0.0149 8788:0.0106 8789:0.0033 8790:0.0026 8791:0.0016 8792:0.0003 8793:0.0001 8794:0.0001 8795:0 8796:0 8797:0 8798:0.1553 8799:5.4171 8800:10.564 8801:1.6849 8802:0.1661 8803:0.1115 8804:0.1679 8805:0.3044 8806:0.4447 8807:0.1987 8808:0.1109 8809:0.0721 8810:0.0401 8811:0.0801 8812:0.0458 8813:0.0514 8814:0.1061 8815:0.1279 8816:0.2077 8817:0.2234 8818:0.0677 8819:0.0822 8820:0.0708 8821:0.0335 8822:0.0456 8823:0.0171 8824:0.0636 8825:0.1143 8826:0.0201 8827:0.0035 8828:0.001 8829:0.0005 8830:0.0002 8831:0.0001 8832:0.0001 8833:0 8834:0 8835:0 8836:0 8837:0 8838:0 8839:0 8840:0 8841:0 8842:0 8843:0 8844:0 8845:0 8846:0 8847:0 8848:0 8849:0 8850:0 8851:0.0001 8852:0.0008 8853:0.0015 8854:0.0017 8855:0.0027 8856:0.0034 8857:0.0029 8858:0.0028 8859:0.0008 8860:0.0001 8861:0.0001 8862:0.0001 8863:0.0001 8864:0.0002 8865:0.0001 8866:0.0147 8867:1.3645 8868:3.7245 8869:0.8661 8870:0.107 8871:7.5676 8872:110.6845 8873:181.8352 8874:51.3257 8875:15.9832 8876:1.3521 8877:0.5789 8878:0.0902 8879:0.047 8880:0.0093 8881:0.0397 8882:0.6199 8883:1.9221 8884:0.6327 8885:0.0059 8886:0.0012 8887:0.0019 8888:0.0016 8889:0.0009 8890:0.0004 8891:0.0003 8892:0.0001 8893:0 8894:0.0002 8895:0.2168 8896:1.3847 8897:0.7373 8898:0.0448 8899:0.0679 8900:0.5087 8901:0.4886 8902:0.3665 8903:6.7511 8904:16.8627 8905:6.3647 8906:1.1555 8907:0.09 8908:0.0575 8909:0.0127 8910:0.0093 8911:0.0143 8912:0.0296 8913:0.0724 8914:0.0758 8915:0.0359 8916:0.0197 8917:0.0027 8918:0.002 8919:0.0011 8920:0.0003 8921:0.0001 8922:0.0001 8923:0 8924:0 8925:0 8926:0.5226 8927:5.9931 8928:12.9287 8929:3.0353 8930:0.19 8931:0.1539 8932:0.1606 8933:0.3518 8934:0.786 8935:0.3752 8936:0.1103 8937:0.0515 8938:0.0467 8939:0.1168 8940:0.1845 8941:0.5014 8942:0.3206 8943:0.1543 8944:0.1433 8945:0.1829 8946:0.1942 8947:0.1341 8948:0.0539 8949:0.0185 8950:0.0131 8951:0.0174 8952:0.3027 8953:0.4504 8954:0.0594 8955:0.0083 8956:0.0012 8957:0.0002 8958:0.0003 8959:0.0003 8960:0.0001 8961:0 8962:0 8963:0 8964:0 8965:0 8966:0 8967:0 8968:0 8969:0 8970:0 8971:0 8972:0 8973:0 8974:0 8975:0 8976:0 8977:0 8978:0 8979:0.0002 8980:0.0007 8981:0.0015 8982:0.002 8983:0.0029 8984:0.0063 8985:0.0099 8986:0.0043 8987:0.0009 8988:0.0001 8989:0.0001 8990:0.0001 8991:0.0001 8992:0.0001 8993:0.0001 8994:0.0033 8995:0.5758 8996:3.9086 8997:1.8134 8998:0.1783 8999:0.2368 9000:8.7592 9001:94.467 9002:109.6066 9003:20.7194 9004:0.9502 9005:0.1282 9006:0.0309 9007:0.0323 9008:0.0196 9009:0.2872 9010:4.6328 9011:4.4868 9012:0.3624 9013:0.0022 9014:0.0027 9015:0.0074 9016:0.0049 9017:0.002 9018:0.0005 9019:0.0001 9020:0 9021:0 9022:0.0012 9023:0.9063 9024:9.2712 9025:6.1955 9026:0.2543 9027:0.0958 9028:0.5506 9029:0.5655 9030:0.356 9031:7.2219 9032:30.533 9033:14.4954 9034:1.0588 9035:0.171 9036:0.1008 9037:0.0102 9038:0.0199 9039:0.0295 9040:0.0551 9041:0.101 9042:0.0538 9043:0.0232 9044:0.0135 